module.exports = function anonymous(rawInput,maxPredictionLength,isSampleI,temperature
/*``*/) {

  if (typeof rawInput === 'undefined') rawInput = [];
  if (typeof maxPredictionLength === 'undefined') maxPredictionLength = 100;
  if (typeof isSampleI === 'undefined') isSampleI = false;
  if (typeof temperature === 'undefined') temperature = 1;
  
var characterTable = {"0":"1","1":"0","2":"2","3":"3","4":"{","5":"\"","6":"n","7":"a","8":"m","9":"e","10":":","11":"O","12":"b","13":"l","14":"i","15":"s","16":"k","17":" ","18":"t","19":"h","20":"T","21":"o","22":"r","23":",","24":"p","25":"c","26":"d","27":"R","28":"q","29":"u","30":"N","31":"S","32":"(","33":")","34":".","35":"'","36":"g","37":"W","38":"f","39":"v","40":"C","41":"y","42":"E","43":"P","44":"w","45":"G","46":"Y","47":";","48":"}","49":"D","50":"L","51":"A","52":"K","53":"F","54":"stop-input","55":"start-output"};
var indexTable = {"0":1,"1":0,"2":2,"3":3,"{":4,"\"":5,"n":6,"a":7,"m":8,"e":9,":":10,"O":11,"b":12,"l":13,"i":14,"s":15,"k":16," ":17,"t":18,"h":19,"T":20,"o":21,"r":22,",":23,"p":24,"c":25,"d":26,"R":27,"q":28,"u":29,"N":30,"S":31,"(":32,")":33,".":34,"'":35,"g":36,"W":37,"f":38,"v":39,"C":40,"y":41,"E":42,"P":43,"w":44,"G":45,"Y":46,";":47,"}":48,"D":49,"L":50,"A":51,"K":52,"F":53,"stop-input":54,"start-output":55};
var characters = ["1","0","2","3","{","\"","n","a","m","e",":","O","b","l","i","s","k"," ","t","h","T","o","r",",","p","c","d","R","q","u","N","S","(",")",".","'","g","W","f","v","C","y","E","P","w","G","Y",";","}","D","L","A","K","F","stop-input","start-output"];
function toIndexes(value) {
      var maxThreshold = arguments.length > 1 && arguments[1] !== undefined ? arguments[1] : 0;

      var result = [];
      
      for (var i = 0, max = value.length; i < max; i++) {
        var character = value[i];
        var index = indexTable[character];
        if (index === undefined) {
          throw new Error('unrecognized character "' + character + '"');
        }
        if (index < maxThreshold) continue;
        result.push(index);
      }

      return result;
    }
function toIndexesInputOutput(value1) {
      var value2 = arguments.length > 1 && arguments[1] !== undefined ? arguments[1] : null;
      var maxThreshold = arguments.length > 2 && arguments[2] !== undefined ? arguments[2] : 0;

      var result = void 0;
      if (typeof value1 === 'string') {
        result = toIndexes(value1.split('').concat(['stop-input', 'start-output']), maxThreshold);
      } else {
        result = toIndexes(value1.concat(['stop-input', 'start-output']), maxThreshold);
      }

      if (value2 === null) return result;

      if (typeof value2 === 'string') {
        return result.concat(toIndexes(value2.split(''), maxThreshold));
      } else {
        return result.concat(toIndexes(value2, maxThreshold));
      }
    }
function toCharacters(indices) {
      var maxThreshold = arguments.length > 1 && arguments[1] !== undefined ? arguments[1] : 0;

      var result = [];
      
      for (var i = 0, max = indices.length; i < max; i++) {
        var index = indices[i];
        if (index < maxThreshold) continue;
        var character = characterTable[index];
        if (character === undefined) {
          throw new Error('unrecognized index "' + index + '"');
        }
        result.push(character);
      }

      return result;
    }

  
  var input = formatDataIn(rawInput);
  var json = {"type":"GRU","options":{"inputSize":56,"inputRange":56,"hiddenSizes":[20,20],"outputSize":56,"learningRate":0.01,"decayRate":0.999,"smoothEps":1e-8,"regc":0.000001,"clipval":5,"json":null,"dataFormatter":{"values":["10000000","10000001","10000002","10000003","10000010","{\"name\":\"Obelisk the Tormentor\",\"passcode\":10000000,\"desc\":\"Requires 3 Tributes to Normal Summon (cannot be Normal Set). This card's Normal Summon cannot be negated. When Normal Summoned, cards and effects cannot be activated. Cannot be targeted by Spells, Traps, or card effects. Once per turn, during the End Phase, if this card was Special Summoned: Send it to the Graveyard. You can Tribute 2 monsters; destroy all monsters your opponent controls. This card cannot declare an attack the turn this effect is activated.\"}","{\"name\":\"Obelisk the Tormentor\",\"passcode\":10000001,\"desc\":\"Requires 3 Tributes to Normal Summon (cannot be Normal Set). This card's Normal Summon cannot be negated. When Normal Summoned, cards and effects cannot be activated. Cannot be targeted by Spells, Traps, or card effects. Once per turn, during the End Phase, if this card was Special Summoned: Send it to the Graveyard. You can Tribute 2 monsters; destroy all monsters your opponent controls. This card cannot declare an attack the turn this effect is activated.\"}","{\"name\":\"Obelisk the Tormentor\",\"passcode\":10000002,\"desc\":\"Requires 3 Tributes to Normal Summon (cannot be Normal Set). This card's Normal Summon cannot be negated. When Normal Summoned, cards and effects cannot be activated. Cannot be targeted by Spells, Traps, or card effects. Once per turn, during the End Phase, if this card was Special Summoned: Send it to the Graveyard. You can Tribute 2 monsters; destroy all monsters your opponent controls. This card cannot declare an attack the turn this effect is activated.\"}","{\"name\":\"Obelisk the Tormentor\",\"passcode\":10000003,\"desc\":\"Requires 3 Tributes to Normal Summon (cannot be Normal Set). This card's Normal Summon cannot be negated. When Normal Summoned, cards and effects cannot be activated. Cannot be targeted by Spells, Traps, or card effects. Once per turn, during the End Phase, if this card was Special Summoned: Send it to the Graveyard. You can Tribute 2 monsters; destroy all monsters your opponent controls. This card cannot declare an attack the turn this effect is activated.\"}","{\"name\":\"The Winged Dragon of Ra\",\"passcode\":10000010,\"desc\":\"Cannot be Special Summoned. Requires 3 Tributes to Normal Summon (cannot be Normal Set). This card's Normal Summon cannot be negated. When Normal Summoned, other cards and effects cannot be activated. When this card is Normal Summoned: You can pay LP so that you only have 100 left; this card gains ATK and DEF equal to the amount of LP paid. You can pay 1000 LP, then target 1 monster on the field; destroy that target.\"}"],"indexTable":{"0":1,"1":0,"2":2,"3":3,"{":4,"\"":5,"n":6,"a":7,"m":8,"e":9,":":10,"O":11,"b":12,"l":13,"i":14,"s":15,"k":16," ":17,"t":18,"h":19,"T":20,"o":21,"r":22,",":23,"p":24,"c":25,"d":26,"R":27,"q":28,"u":29,"N":30,"S":31,"(":32,")":33,".":34,"'":35,"g":36,"W":37,"f":38,"v":39,"C":40,"y":41,"E":42,"P":43,"w":44,"G":45,"Y":46,";":47,"}":48,"D":49,"L":50,"A":51,"K":52,"F":53,"stop-input":54,"start-output":55},"characterTable":{"0":"1","1":"0","2":"2","3":"3","4":"{","5":"\"","6":"n","7":"a","8":"m","9":"e","10":":","11":"O","12":"b","13":"l","14":"i","15":"s","16":"k","17":" ","18":"t","19":"h","20":"T","21":"o","22":"r","23":",","24":"p","25":"c","26":"d","27":"R","28":"q","29":"u","30":"N","31":"S","32":"(","33":")","34":".","35":"'","36":"g","37":"W","38":"f","39":"v","40":"C","41":"y","42":"E","43":"P","44":"w","45":"G","46":"Y","47":";","48":"}","49":"D","50":"L","51":"A","52":"K","53":"F","54":"stop-input","55":"start-output"},"characters":["1","0","2","3","{","\"","n","a","m","e",":","O","b","l","i","s","k"," ","t","h","T","o","r",",","p","c","d","R","q","u","N","S","(",")",".","'","g","W","f","v","C","y","E","P","w","G","Y",";","}","D","L","A","K","F","stop-input","start-output"]}},"input":{"rows":57,"columns":56,"weights":{"0":-0.49250343441963196,"1":0.4075964689254761,"2":-0.9421899318695068,"3":0.6700919270515442,"4":0.5664051175117493,"5":0.06286364048719406,"6":-0.3403497040271759,"7":0.4556724727153778,"8":0.48166000843048096,"9":-0.339994341135025,"10":-0.2645927965641022,"11":0.58537358045578,"12":1.0197232961654663,"13":-0.1645292490720749,"14":-0.05989175662398338,"15":-1.0961501598358154,"16":-0.6350858211517334,"17":-0.019542232155799866,"18":-0.9670679569244385,"19":-0.07497630268335342,"20":-1.0496631860733032,"21":0.6398525834083557,"22":0.32517313957214355,"23":1.1558316946029663,"24":-0.27809226512908936,"25":0.28652524948120117,"26":0.029351990669965744,"27":0.8100284934043884,"28":0.9767851233482361,"29":-0.9575634002685547,"30":-0.5749478340148926,"31":0.161224365234375,"32":0.6576845645904541,"33":0.7913990020751953,"34":-0.8292719721794128,"35":-0.2004224807024002,"36":0.0012340807588770986,"37":-0.7294600009918213,"38":-0.2065798044204712,"39":-0.5458170175552368,"40":-1.1911286115646362,"41":-0.12884318828582764,"42":0.13215704262256622,"43":-0.3481702208518982,"44":0.2676200866699219,"45":-0.8578566908836365,"46":-1.3165661096572876,"47":-0.648257851600647,"48":0.11386720091104507,"49":-0.1542658656835556,"50":0.17673011124134064,"51":-0.3828272521495819,"52":-0.14655867218971252,"53":-0.16113077104091644,"54":-0.09080066531896591,"55":0.3575805723667145,"56":0.6979362368583679,"57":0.18304437398910522,"58":0.7492982745170593,"59":1.132175087928772,"60":0.8010088205337524,"61":0.8846877217292786,"62":-0.14711232483386993,"63":-0.8667382597923279,"64":-1.7333837747573853,"65":0.5094314813613892,"66":1.2142255306243896,"67":-1.0189672708511353,"68":-1.014885663986206,"69":0.27535977959632874,"70":0.42706191539764404,"71":0.5202203989028931,"72":-0.6662684082984924,"73":-1.2567235231399536,"74":-2.014569044113159,"75":0.5043500065803528,"76":0.38424205780029297,"77":0.6036412715911865,"78":-0.8356401920318604,"79":0.5351443290710449,"80":1.5906479358673096,"81":0.07988845556974411,"82":-0.08429175615310669,"83":0.8385457396507263,"84":-0.4689040780067444,"85":1.0206173658370972,"86":0.8787318468093872,"87":-1.1980767250061035,"88":-1.0331509113311768,"89":0.4611847400665283,"90":0.24481652677059174,"91":2.090055465698242,"92":0.04829224571585655,"93":0.3643789291381836,"94":2.3170454502105713,"95":-0.9760123491287231,"96":0.2074214369058609,"97":1.1403098106384277,"98":-0.10006681829690933,"99":-1.461488962173462,"100":-0.018315579742193222,"101":-1.2709871530532837,"102":0.36963382363319397,"103":-0.1821136474609375,"104":0.2668999135494232,"105":0.16761036217212677,"106":0.9976024031639099,"107":0.3209807872772217,"108":0.5353295803070068,"109":-1.3354674577713013,"110":0.33226293325424194,"111":-1.8613078594207764,"112":-0.713596522808075,"113":-0.535320520401001,"114":0.17909081280231476,"115":0.7861300110816956,"116":1.7851848602294922,"117":0.3139484226703644,"118":0.2163209617137909,"119":0.4814358651638031,"120":-1.9936000108718872,"121":-0.04351309686899185,"122":0.8763655424118042,"123":-1.5020231008529663,"124":-0.780008852481842,"125":-0.37875574827194214,"126":0.6168675422668457,"127":0.2253287434577942,"128":0.47058629989624023,"129":-0.4007630944252014,"130":-0.6324772238731384,"131":0.6803566813468933,"132":-0.09227491170167923,"133":-0.15705692768096924,"134":-2.1298515796661377,"135":0.2815839350223541,"136":0.4658989906311035,"137":1.1680114269256592,"138":-0.5709710121154785,"139":1.711940050125122,"140":-0.7338539361953735,"141":-1.1447787284851074,"142":-0.24675634503364563,"143":-0.8033954501152039,"144":1.0341198444366455,"145":1.3405320644378662,"146":0.38083821535110474,"147":0.40182918310165405,"148":-0.21310842037200928,"149":0.8044811487197876,"150":3.529097318649292,"151":0.37293556332588196,"152":-0.2596646845340729,"153":0.8418112993240356,"154":1.109005331993103,"155":-0.9864081740379333,"156":-0.6154345870018005,"157":0.7102405428886414,"158":-0.14164216816425323,"159":0.3425237834453583,"160":-0.3524293601512909,"161":0.17169681191444397,"162":1.6396986246109009,"163":1.1013147830963135,"164":-0.42510420083999634,"165":-2.2892963886260986,"166":-0.2960227131843567,"167":-0.1731264740228653,"168":0.8382178544998169,"169":0.022987952455878258,"170":-1.4440326690673828,"171":0.3859449028968811,"172":0.6913245916366577,"173":-1.5837897062301636,"174":0.9247718453407288,"175":-0.8518587946891785,"176":0.8374300003051758,"177":1.4822521209716797,"178":-0.30689534544944763,"179":-0.6969571709632874,"180":0.3832564949989319,"181":0.19350281357765198,"182":1.2433921098709106,"183":0.6588495373725891,"184":0.0042394730262458324,"185":-2.4857256412506104,"186":0.07776574045419693,"187":-1.0961624383926392,"188":0.8884097933769226,"189":-0.2640640437602997,"190":-0.3878844678401947,"191":0.00008910246833693236,"192":-0.09032966196537018,"193":-1.2256112098693848,"194":0.35061943531036377,"195":0.4272181987762451,"196":-1.6290074586868286,"197":-0.6754450798034668,"198":0.1747644990682602,"199":0.6824647188186646,"200":-1.4074838161468506,"201":-0.31808340549468994,"202":0.5138325691223145,"203":-0.2792274057865143,"204":-1.5600314140319824,"205":1.4449130296707153,"206":0.2777562439441681,"207":-0.30541208386421204,"208":-0.8068987131118774,"209":0.7536054849624634,"210":-0.29673314094543457,"211":0.5079677700996399,"212":0.5675715208053589,"213":0.8683068156242371,"214":0.15818938612937927,"215":0.3239421546459198,"216":0.7913913130760193,"217":0.9650201797485352,"218":-0.7619743943214417,"219":0.7713732123374939,"220":0.7085533738136292,"221":0.7741327881813049,"222":-0.3015734553337097,"223":0.5452718138694763,"224":1.6866483688354492,"225":1.2565159797668457,"226":-1.0105079412460327,"227":0.18748532235622406,"228":0.30908069014549255,"229":-2.0697169303894043,"230":-0.23931005597114563,"231":-1.6378473043441772,"232":1.381695032119751,"233":0.4767231047153473,"234":-0.0060641830787062645,"235":0.8708272576332092,"236":0.9276540875434875,"237":0.5805180668830872,"238":1.1669108867645264,"239":-0.11898458749055862,"240":0.21160806715488434,"241":-1.909227728843689,"242":-1.0014201402664185,"243":-0.3873101770877838,"244":0.9204403758049011,"245":0.14525428414344788,"246":0.6828283071517944,"247":-0.49084168672561646,"248":-1.1371064186096191,"249":-0.2468942552804947,"250":0.16686366498470306,"251":0.7086605429649353,"252":-1.048805594444275,"253":-0.6946537494659424,"254":0.29502299427986145,"255":-0.4917830228805542,"256":-1.115077018737793,"257":-0.2631107270717621,"258":0.8752202391624451,"259":0.056134648621082306,"260":-0.9816219806671143,"261":-0.11961685121059418,"262":-0.4363210201263428,"263":1.890028715133667,"264":0.2757338583469391,"265":1.0297256708145142,"266":-0.034585483372211456,"267":0.28454461693763733,"268":1.46097993850708,"269":1.7233892679214478,"270":-0.16364409029483795,"271":0.003304167650640011,"272":1.0141892433166504,"273":0.4834396541118622,"274":-1.0145689249038696,"275":-0.18287816643714905,"276":0.9467648267745972,"277":0.6329730153083801,"278":0.4418734312057495,"279":0.16045993566513062,"280":-0.3736172020435333,"281":-0.14560365676879883,"282":0.6378329396247864,"283":-1.182620644569397,"284":-0.3428906500339508,"285":1.2174471616744995,"286":0.23913897573947906,"287":-0.22103558480739594,"288":-0.12039323151111603,"289":-0.4226025342941284,"290":-0.2781665325164795,"291":-0.9291048645973206,"292":0.5851535797119141,"293":1.191861867904663,"294":0.16364841163158417,"295":-1.5013513565063477,"296":0.05264038220047951,"297":0.07514885812997818,"298":-0.2313188761472702,"299":-0.34948623180389404,"300":1.7785332202911377,"301":0.7226822376251221,"302":1.6527413129806519,"303":-0.6096076965332031,"304":-0.2937091886997223,"305":-0.19910453259944916,"306":0.00939920637756586,"307":-0.0203478392213583,"308":1.6744412183761597,"309":0.5767852067947388,"310":0.022458884865045547,"311":-0.10577821731567383,"312":-1.1779481172561646,"313":-1.5954850912094116,"314":-0.31796130537986755,"315":-0.24492190778255463,"316":-0.9258313179016113,"317":-1.3762012720108032,"318":-0.47835439443588257,"319":0.512942910194397,"320":0.5903032422065735,"321":-0.08856987953186035,"322":-1.5376514196395874,"323":-0.19557584822177887,"324":-0.014775781892240047,"325":-0.37566980719566345,"326":-0.5126999020576477,"327":0.2316581904888153,"328":-0.5638391971588135,"329":-0.35126587748527527,"330":-0.04579918831586838,"331":0.3319850265979767,"332":-0.06052527204155922,"333":0.2898212969303131,"334":1.1006085872650146,"335":-0.5923797488212585,"336":0.3680061995983124,"337":-0.4543225169181824,"338":-0.1352667361497879,"339":0.03612944856286049,"340":0.6500983834266663,"341":0.588216245174408,"342":-1.1039066314697266,"343":-0.02179001457989216,"344":0.3255097568035126,"345":0.28963741660118103,"346":0.3659360408782959,"347":-0.9940687417984009,"348":0.10037919878959656,"349":-0.593643307685852,"350":-0.1744326502084732,"351":1.0256956815719604,"352":-1.5398153066635132,"353":1.6276963949203491,"354":1.5079764127731323,"355":-1.5793862342834473,"356":-0.48298630118370056,"357":1.0210202932357788,"358":-0.7619057893753052,"359":-0.5718352198600769,"360":1.2149479389190674,"361":-0.07579851895570755,"362":1.4341559410095215,"363":0.06399554759263992,"364":-0.6624242067337036,"365":0.15077033638954163,"366":1.2756205797195435,"367":0.228339284658432,"368":0.06763950735330582,"369":-0.5084410905838013,"370":-0.09672491252422333,"371":0.031868964433670044,"372":0.5385370850563049,"373":1.3908015489578247,"374":0.057796016335487366,"375":-2.1303470134735107,"376":0.3177659511566162,"377":-0.05043933913111687,"378":-0.03973337262868881,"379":-0.09835728257894516,"380":0.6210547685623169,"381":-1.110877513885498,"382":0.6230224370956421,"383":-0.4647376239299774,"384":-1.1327542066574097,"385":-0.14844931662082672,"386":-0.46315863728523254,"387":1.9138649702072144,"388":0.22778964042663574,"389":-0.4515080749988556,"390":-0.33215564489364624,"391":-1.817927360534668,"392":0.5224819183349609,"393":-0.12175507098436356,"394":0.2780202031135559,"395":0.9126974940299988,"396":0.20141172409057617,"397":1.1572201251983643,"398":-0.291682630777359,"399":0.33317679166793823,"400":-1.1505625247955322,"401":0.9440248012542725,"402":0.1532413214445114,"403":-1.6287208795547485,"404":0.46922409534454346,"405":-0.45287129282951355,"406":-0.2482582926750183,"407":-0.08085190504789352,"408":1.1902707815170288,"409":1.0134590864181519,"410":1.1155471801757812,"411":-1.0410863161087036,"412":-1.5468488931655884,"413":-0.733302116394043,"414":-0.21537721157073975,"415":-0.03203175961971283,"416":-0.40937209129333496,"417":-2.5528502464294434,"418":1.3807164430618286,"419":-0.9309074878692627,"420":-1.4506844282150269,"421":-1.263747215270996,"422":-2.6679770946502686,"423":1.2831828594207764,"424":0.4642433226108551,"425":1.0004817247390747,"426":-0.068398617208004,"427":0.8880575895309448,"428":-1.004647135734558,"429":0.7750306725502014,"430":-0.043969132006168365,"431":0.7051908373832703,"432":-1.4178849458694458,"433":1.0143386125564575,"434":-0.3927080035209656,"435":-0.7205018997192383,"436":-0.1812320053577423,"437":-0.6263855695724487,"438":0.16770616173744202,"439":1.567624568939209,"440":1.4029840230941772,"441":2.353273391723633,"442":-1.5291820764541626,"443":-1.2860928773880005,"444":0.9201119542121887,"445":-0.3864907920360565,"446":-0.36199331283569336,"447":0.0986848697066307,"448":-0.6572017073631287,"449":-1.5818016529083252,"450":-0.2824515104293823,"451":-2.281740665435791,"452":-0.548992395401001,"453":2.249600887298584,"454":1.8382630348205566,"455":-0.06796138733625412,"456":-2.5211949348449707,"457":-1.5002379417419434,"458":-1.9346270561218262,"459":0.00668314890936017,"460":-0.05354088917374611,"461":0.23852680623531342,"462":-1.0421786308288574,"463":2.6114516258239746,"464":-0.36151453852653503,"465":1.7910271883010864,"466":0.9330970644950867,"467":0.7370466589927673,"468":-0.5081214904785156,"469":-1.788501501083374,"470":-0.38594987988471985,"471":0.8288067579269409,"472":1.0177404880523682,"473":1.2036815881729126,"474":-0.7145071029663086,"475":0.1912916749715805,"476":0.3685390055179596,"477":-0.9222932457923889,"478":-1.4682347774505615,"479":0.14465034008026123,"480":1.2840545177459717,"481":-0.5019224882125854,"482":-0.6178920269012451,"483":1.3869374990463257,"484":-0.09425584226846695,"485":0.7566648125648499,"486":0.0810251533985138,"487":-1.363726258277893,"488":0.19109122455120087,"489":-0.8382163047790527,"490":-0.06098220497369766,"491":-0.07666072994470596,"492":-3.417640209197998,"493":-0.6034398078918457,"494":-0.8468391299247742,"495":1.7248342037200928,"496":0.23174305260181427,"497":0.04117675870656967,"498":0.283736914396286,"499":0.3717864155769348,"500":0.17622917890548706,"501":-0.9846206307411194,"502":-0.34488755464553833,"503":-1.964746117591858,"504":-0.12640827894210815,"505":0.453972727060318,"506":-0.4976823329925537,"507":0.1905086487531662,"508":0.9525490999221802,"509":-1.1514942646026611,"510":-0.6016672253608704,"511":-0.20448936522006989,"512":0.37540411949157715,"513":1.256683588027954,"514":0.2899268865585327,"515":0.023196673020720482,"516":0.6435887813568115,"517":0.4748789370059967,"518":0.3247174322605133,"519":-0.307542085647583,"520":0.21814274787902832,"521":-1.7898457050323486,"522":-0.7727802395820618,"523":-0.7591601610183716,"524":-2.073173761367798,"525":0.0822734609246254,"526":-0.43514031171798706,"527":1.7567671537399292,"528":-0.9836373925209045,"529":0.0860728770494461,"530":0.857231855392456,"531":0.09926331043243408,"532":-0.26859763264656067,"533":-2.2422432899475098,"534":-0.16224552690982819,"535":1.1547154188156128,"536":1.6863638162612915,"537":1.4656497240066528,"538":-0.28814029693603516,"539":0.05917647108435631,"540":-0.36573851108551025,"541":1.044893741607666,"542":-0.35084736347198486,"543":-0.15899039804935455,"544":-0.9813880920410156,"545":0.8587639331817627,"546":-0.9751287698745728,"547":-0.9222310185432434,"548":0.09335801005363464,"549":0.3939318060874939,"550":-0.32055947184562683,"551":0.6840813159942627,"552":0.8061309456825256,"553":1.0110057592391968,"554":-0.40686362981796265,"555":-1.5225688219070435,"556":1.1145660877227783,"557":1.0169061422348022,"558":0.14433173835277557,"559":0.556914210319519,"560":-1.426682472229004,"561":-1.9078199863433838,"562":0.49954497814178467,"563":0.5686184167861938,"564":-0.38862016797065735,"565":-0.3470791280269623,"566":0.4866565763950348,"567":0.19027133285999298,"568":-0.7030174136161804,"569":-0.0958016887307167,"570":-0.5472856760025024,"571":0.7325566411018372,"572":-0.4229637682437897,"573":-0.11127866804599762,"574":-0.7315260767936707,"575":-0.603820264339447,"576":0.13753768801689148,"577":0.0299924835562706,"578":-0.5237540006637573,"579":-0.27058544754981995,"580":0.19395945966243744,"581":-0.5705091953277588,"582":-0.50748211145401,"583":0.03171984851360321,"584":0.9782736897468567,"585":1.5209858417510986,"586":-0.11180677264928818,"587":-0.31536510586738586,"588":0.01730380207300186,"589":1.6831036806106567,"590":0.28666186332702637,"591":-1.6010953187942505,"592":-2.830209255218506,"593":-2.4191410541534424,"594":-0.027035241946578026,"595":0.9315417408943176,"596":0.0349125862121582,"597":-1.1192394495010376,"598":-0.3352894186973572,"599":-1.0900256633758545,"600":1.0912833213806152,"601":-0.14805009961128235,"602":0.030956339091062546,"603":-0.8501271605491638,"604":0.0626051276922226,"605":-0.35047048330307007,"606":-0.653176486492157,"607":-0.4177210032939911,"608":0.14353449642658234,"609":-1.0049285888671875,"610":0.7344768643379211,"611":0.2518235743045807,"612":0.10780991613864899,"613":-1.9567152261734009,"614":0.14007459580898285,"615":-2.0462353229522705,"616":-1.3071417808532715,"617":0.22020885348320007,"618":2.058312177658081,"619":-1.104119896888733,"620":0.12745463848114014,"621":0.6509067416191101,"622":0.08416053652763367,"623":1.0110961198806763,"624":-0.8612027764320374,"625":0.9567810893058777,"626":0.7544726133346558,"627":1.676466703414917,"628":0.05455389618873596,"629":-0.44577571749687195,"630":0.5337774753570557,"631":0.36710789799690247,"632":-0.13540348410606384,"633":0.3257289230823517,"634":-1.7659833431243896,"635":0.6180766224861145,"636":2.2082736492156982,"637":0.1496194303035736,"638":0.8029146790504456,"639":0.9508218169212341,"640":0.8708974123001099,"641":-0.7161599397659302,"642":-1.8790013790130615,"643":-2.6337907314300537,"644":0.1176156997680664,"645":2.0431549549102783,"646":-0.2825841009616852,"647":-1.3998441696166992,"648":-1.3180100917816162,"649":-1.2925320863723755,"650":-0.2768978774547577,"651":0.34858283400535583,"652":0.2053331434726715,"653":-0.5817720890045166,"654":0.9915163516998291,"655":0.6750701069831848,"656":1.707906723022461,"657":-0.887371301651001,"658":-0.11281833052635193,"659":0.5235234498977661,"660":0.15573173761367798,"661":0.9342981576919556,"662":0.5214080214500427,"663":-0.08355940878391266,"664":1.1335632801055908,"665":-0.30650392174720764,"666":1.1735299825668335,"667":-0.6588334441184998,"668":-1.8563212156295776,"669":-0.8733922839164734,"670":0.9641018509864807,"671":1.1209932565689087,"672":-0.504630446434021,"673":-0.8438767194747925,"674":2.116830587387085,"675":0.8376978039741516,"676":1.746130108833313,"677":0.5336882472038269,"678":-0.8466198444366455,"679":0.5182211995124817,"680":-0.03918400779366493,"681":2.7093656063079834,"682":-0.0030076943803578615,"683":0.1997818797826767,"684":-0.492778480052948,"685":0.7959361672401428,"686":1.4186015129089355,"687":-1.321271300315857,"688":-1.1467554569244385,"689":-0.45528775453567505,"690":0.10108216106891632,"691":-0.05065518617630005,"692":1.810742974281311,"693":-0.40026015043258667,"694":0.5369370579719543,"695":0.3542870581150055,"696":0.29522016644477844,"697":-0.03961541876196861,"698":0.12174910306930542,"699":-1.3889391422271729,"700":0.06364848464727402,"701":2.8491764068603516,"702":1.0050246715545654,"703":0.3435412347316742,"704":-0.6373697519302368,"705":-0.5940003991127014,"706":-0.2460118979215622,"707":1.0949161052703857,"708":-0.18416035175323486,"709":0.7646498084068298,"710":0.1599639356136322,"711":-1.07241952419281,"712":0.5627695918083191,"713":0.4739886522293091,"714":-0.8018462657928467,"715":-2.622692108154297,"716":0.2981025278568268,"717":-1.8175101280212402,"718":0.6811069846153259,"719":-0.10266416519880295,"720":0.8306282162666321,"721":-1.1431920528411865,"722":-0.36272624135017395,"723":0.6877465844154358,"724":-0.07325252890586853,"725":0.06896327435970306,"726":0.06299731135368347,"727":-1.3852641582489014,"728":0.20557069778442383,"729":0.5982146263122559,"730":-1.29292893409729,"731":0.42225733399391174,"732":-0.09146727621555328,"733":-0.6581075191497803,"734":-0.20873712003231049,"735":-0.0747217983007431,"736":1.2362514734268188,"737":-0.03001359850168228,"738":-0.35489535331726074,"739":-0.1323392540216446,"740":0.6572326421737671,"741":-0.05154649540781975,"742":1.4877289533615112,"743":-0.7810850739479065,"744":0.9829169511795044,"745":-1.335020899772644,"746":0.2058371901512146,"747":0.24015052616596222,"748":0.11104439198970795,"749":-0.3610009253025055,"750":1.7639280557632446,"751":-0.22928786277770996,"752":0.4580293893814087,"753":-0.3794407844543457,"754":-0.14598745107650757,"755":-0.5194089412689209,"756":-0.7879005074501038,"757":-0.9176058769226074,"758":0.12674754858016968,"759":0.9284718036651611,"760":1.0368661880493164,"761":0.39536452293395996,"762":0.2696542739868164,"763":0.05338267236948013,"764":-0.6977497935295105,"765":-0.09443206340074539,"766":-0.8150330185890198,"767":-0.46607714891433716,"768":-0.8573192954063416,"769":0.5931898951530457,"770":0.008754768408834934,"771":0.5951008796691895,"772":-0.012849699705839157,"773":-0.180515855550766,"774":0.287706583738327,"775":0.796960711479187,"776":-0.0877218171954155,"777":0.020646510645747185,"778":-1.2061554193496704,"779":0.14712853729724884,"780":0.5381969213485718,"781":2.3480541706085205,"782":0.4334730803966522,"783":1.9023276567459106,"784":0.43967190384864807,"785":2.665792226791382,"786":0.18888059258460999,"787":0.3407406508922577,"788":1.4078253507614136,"789":0.9567776918411255,"790":0.3536698520183563,"791":-0.03127051517367363,"792":-0.1354004442691803,"793":-0.8501551151275635,"794":-0.08648180961608887,"795":0.2901666462421417,"796":-0.2411503791809082,"797":-0.19168952107429504,"798":-1.4699562788009644,"799":0.9441553354263306,"800":0.3905518651008606,"801":1.05305016040802,"802":0.892854630947113,"803":0.5297537446022034,"804":0.7508019208908081,"805":1.8722655773162842,"806":0.005174416583031416,"807":1.027107834815979,"808":0.9006369113922119,"809":0.2583048641681671,"810":0.048888593912124634,"811":0.5467469692230225,"812":0.4235321581363678,"813":0.7999560236930847,"814":1.4868754148483276,"815":0.7099970579147339,"816":1.4634884595870972,"817":0.20408934354782104,"818":-0.7526282668113708,"819":0.11220285296440125,"820":0.7340500354766846,"821":0.3294079005718231,"822":0.892941415309906,"823":-2.4723920822143555,"824":-1.1368638277053833,"825":0.8430274128913879,"826":0.2780630588531494,"827":-0.2585706412792206,"828":-0.3527713418006897,"829":-2.1976656913757324,"830":0.27176880836486816,"831":-1.6600550413131714,"832":-0.7539569139480591,"833":-0.4325188100337982,"834":0.28021395206451416,"835":-0.5639862418174744,"836":-0.8391076326370239,"837":0.3370530903339386,"838":0.6277379989624023,"839":-0.6077382564544678,"840":0.1742255836725235,"841":0.4066815972328186,"842":1.117457628250122,"843":-0.029233604669570923,"844":-0.9391395449638367,"845":-0.3109931945800781,"846":-0.846510112285614,"847":0.28715935349464417,"848":0.1684964895248413,"849":2.2177047729492188,"850":1.7185026407241821,"851":-0.3703882098197937,"852":-1.1447713375091553,"853":0.29545411467552185,"854":0.07281173765659332,"855":-1.2475571632385254,"856":1.2780735492706299,"857":-1.1237082481384277,"858":0.10673686116933823,"859":-1.2891006469726562,"860":1.1626620292663574,"861":1.2225298881530762,"862":0.061108361929655075,"863":0.00014149013441056013,"864":0.5792408585548401,"865":-0.477689266204834,"866":-0.3808721899986267,"867":-0.6430999636650085,"868":-0.439079225063324,"869":2.4647912979125977,"870":1.2748199701309204,"871":-1.1355938911437988,"872":-1.094178557395935,"873":0.12280763685703278,"874":0.729820728302002,"875":0.046983227133750916,"876":-0.051231734454631805,"877":1.5755881071090698,"878":-0.13736377656459808,"879":-0.5915970802307129,"880":1.5198895931243896,"881":-0.31548580527305603,"882":-0.5269609689712524,"883":0.40572065114974976,"884":1.582730770111084,"885":0.351322740316391,"886":1.0094504356384277,"887":-0.0004819894675165415,"888":-0.05175311490893364,"889":-0.27266597747802734,"890":0.014725487679243088,"891":0.4618437886238098,"892":-0.5681061148643494,"893":0.49922364950180054,"894":0.9875441789627075,"895":0.6449533700942993,"896":0.13010811805725098,"897":-1.4221255779266357,"898":-1.3864338397979736,"899":-2.128546953201294,"900":-0.7882960438728333,"901":-1.7666029930114746,"902":1.2112369537353516,"903":-0.321236789226532,"904":-1.9701595306396484,"905":-0.8333723545074463,"906":-1.1556167602539062,"907":0.7952967286109924,"908":0.6290532946586609,"909":0.4552156925201416,"910":0.5561563968658447,"911":-0.052938081324100494,"912":1.023823857307434,"913":-1.7330368757247925,"914":-2.1088433265686035,"915":0.5342978239059448,"916":0.3672782778739929,"917":-1.6451172828674316,"918":-0.00889735296368599,"919":1.7602612972259521,"920":-0.1634746640920639,"921":0.7017713785171509,"922":-0.5677875876426697,"923":-0.6389456987380981,"924":-1.0985947847366333,"925":-0.08894315361976624,"926":-1.0468358993530273,"927":-1.845114827156067,"928":-2.7069454193115234,"929":-1.2633916139602661,"930":1.5612809658050537,"931":0.5336153507232666,"932":-0.6894727945327759,"933":-0.3135607838630676,"934":-0.07822128385305405,"935":1.4096343517303467,"936":1.321831226348877,"937":0.7689035534858704,"938":0.37033572793006897,"939":-2.1023364067077637,"940":-1.0202345848083496,"941":1.593299388885498,"942":0.5429977774620056,"943":0.6076987385749817,"944":1.131994605064392,"945":-0.6624686121940613,"946":0.7547919750213623,"947":-0.4583856761455536,"948":-0.20018424093723297,"949":-0.4786147475242615,"950":-1.060217261314392,"951":-1.704055905342102,"952":-0.832460343837738,"953":-0.059143729507923126,"954":-1.9910991191864014,"955":0.2468709945678711,"956":-0.25349074602127075,"957":-0.4744277894496918,"958":-0.22381249070167542,"959":1.8858206272125244,"960":0.030892737209796906,"961":1.0978997945785522,"962":1.2110003232955933,"963":-0.7816465497016907,"964":0.15107975900173187,"965":-0.5256701707839966,"966":0.31088051199913025,"967":-0.12121150642633438,"968":0.24698548018932343,"969":-2.278980255126953,"970":0.16791826486587524,"971":-0.19174818694591522,"972":0.5239469408988953,"973":0.460233598947525,"974":0.6047174334526062,"975":-0.801051914691925,"976":-0.9242876172065735,"977":-1.6493369340896606,"978":-0.599418580532074,"979":-0.5250350832939148,"980":-0.04198627173900604,"981":-1.340748906135559,"982":-0.49936166405677795,"983":0.8889135718345642,"984":-0.3668714761734009,"985":0.48359259963035583,"986":0.10396835952997208,"987":-1.3618444204330444,"988":-0.5003679990768433,"989":-0.32506826519966125,"990":1.6746399402618408,"991":1.1539287567138672,"992":0.17338524758815765,"993":-0.477908194065094,"994":0.41515517234802246,"995":2.197831869125366,"996":0.3022787272930145,"997":0.7199010252952576,"998":0.20574799180030823,"999":-0.4772535562515259,"1000":1.3124451637268066,"1001":1.0821161270141602,"1002":0.33222925662994385,"1003":-0.8611491918563843,"1004":-0.730819821357727,"1005":0.1862218976020813,"1006":-1.0535207986831665,"1007":2.3609609603881836,"1008":1.1939173936843872,"1009":-0.13556769490242004,"1010":-0.31109127402305603,"1011":0.3239656388759613,"1012":-1.8812047243118286,"1013":0.27028149366378784,"1014":0.3889782130718231,"1015":-0.8668121695518494,"1016":-0.6890515685081482,"1017":-2.00321364402771,"1018":-2.5359861850738525,"1019":-0.054816827178001404,"1020":0.22949321568012238,"1021":-0.2203640341758728,"1022":-1.1249645948410034,"1023":-0.7446066737174988,"1024":0.3233430087566376,"1025":0.053846560418605804,"1026":0.9257896542549133,"1027":-0.1991683542728424,"1028":-1.051527976989746,"1029":-3.2459704875946045,"1030":-0.760627269744873,"1031":-0.36122196912765503,"1032":0.6947917938232422,"1033":0.06510970741510391,"1034":-0.2510177493095398,"1035":0.13456830382347107,"1036":-0.510223925113678,"1037":-1.9195619821548462,"1038":-0.5040597319602966,"1039":0.3627901077270508,"1040":0.11264266073703766,"1041":0.5366503596305847,"1042":-1.1980136632919312,"1043":0.3412531316280365,"1044":-0.06571106612682343,"1045":0.5135130882263184,"1046":-0.4433881342411041,"1047":-0.6519152522087097,"1048":-1.2006378173828125,"1049":-0.3501449227333069,"1050":-0.33615177869796753,"1051":-0.13915930688381195,"1052":-1.0408985614776611,"1053":-1.4162064790725708,"1054":-0.1860320270061493,"1055":1.1977651119232178,"1056":-0.22105051577091217,"1057":0.10508238524198532,"1058":-0.12919586896896362,"1059":0.2077607363462448,"1060":-0.05234862491488457,"1061":-1.158457636833191,"1062":-1.7224408388137817,"1063":-0.8709194660186768,"1064":1.4538761377334595,"1065":0.07079314440488815,"1066":0.6809695363044739,"1067":-0.8604727387428284,"1068":-0.5432655811309814,"1069":1.261286735534668,"1070":-1.022634744644165,"1071":-0.8891544342041016,"1072":-0.531847357749939,"1073":0.2795341908931732,"1074":0.2732827365398407,"1075":-0.06439176946878433,"1076":-1.8268548250198364,"1077":0.7666431069374084,"1078":-1.2179123163223267,"1079":1.039271593093872,"1080":0.7664353251457214,"1081":0.3891642987728119,"1082":1.5610647201538086,"1083":-0.31221750378608704,"1084":-0.2657182514667511,"1085":1.3952630758285522,"1086":-1.9177547693252563,"1087":0.9083783030509949,"1088":0.7792284488677979,"1089":-0.9409497380256653,"1090":1.160838007926941,"1091":-0.3288688361644745,"1092":-0.47522857785224915,"1093":0.3692254424095154,"1094":1.1193900108337402,"1095":-0.9224036335945129,"1096":-0.7031805515289307,"1097":0.12393296509981155,"1098":0.19280828535556793,"1099":-0.012717116624116898,"1100":0.139219731092453,"1101":-0.024871140718460083,"1102":0.4861554205417633,"1103":-1.4924850463867188,"1104":-0.40370145440101624,"1105":0.5095480680465698,"1106":0.9285545349121094,"1107":0.7968538999557495,"1108":-0.5148115754127502,"1109":-0.7620447278022766,"1110":0.08285695314407349,"1111":-1.230277180671692,"1112":-0.9585015177726746,"1113":0.2997555434703827,"1114":-0.25724878907203674,"1115":1.1615173816680908,"1116":-0.32176876068115234,"1117":-0.4239031672477722,"1118":0.3941015303134918,"1119":-1.987755537033081,"1120":0.35638129711151123,"1121":-0.08846254646778107,"1122":-0.7119230628013611,"1123":0.8448686599731445,"1124":-0.41706475615501404,"1125":-1.5519795417785645,"1126":-0.8632557988166809,"1127":0.5929521322250366,"1128":0.9110405445098877,"1129":0.4739634096622467,"1130":-0.35523557662963867,"1131":0.15596964955329895,"1132":2.0619213581085205,"1133":0.09694533795118332,"1134":0.1735253781080246,"1135":-0.3413141369819641,"1136":0.39842021465301514,"1137":-0.26960569620132446,"1138":0.8063869476318359,"1139":-0.4923858046531677,"1140":-1.0296469926834106,"1141":-0.6758198738098145,"1142":-0.20651917159557343,"1143":0.00813235342502594,"1144":-0.26886439323425293,"1145":-0.2789499759674072,"1146":1.4047703742980957,"1147":0.6961137056350708,"1148":-2.102918863296509,"1149":0.08623214066028595,"1150":-0.7103508710861206,"1151":0.8775099515914917,"1152":-0.1320752501487732,"1153":0.7808494567871094,"1154":0.6849422454833984,"1155":1.8767776489257812,"1156":-0.8547394275665283,"1157":1.5565543174743652,"1158":-0.7957202792167664,"1159":-0.217242032289505,"1160":-0.6835132837295532,"1161":0.9713519215583801,"1162":-0.576506495475769,"1163":-1.2454252243041992,"1164":0.18451465666294098,"1165":0.779138445854187,"1166":0.9603975415229797,"1167":1.136175274848938,"1168":1.4493987560272217,"1169":1.4755675792694092,"1170":-1.3844661712646484,"1171":-1.0026378631591797,"1172":0.8084688782691956,"1173":1.6598526239395142,"1174":-0.30346742272377014,"1175":0.5288968086242676,"1176":1.0481488704681396,"1177":-1.326461911201477,"1178":-0.32727816700935364,"1179":0.8611174821853638,"1180":1.176978588104248,"1181":0.14620840549468994,"1182":-1.6436235904693604,"1183":-0.22075290977954865,"1184":0.8323677778244019,"1185":0.9235420227050781,"1186":0.6216744780540466,"1187":-1.403193712234497,"1188":-0.44258320331573486,"1189":0.00035563946585170925,"1190":1.0859507322311401,"1191":-0.6212638020515442,"1192":1.0083131790161133,"1193":0.6065008044242859,"1194":1.8516632318496704,"1195":0.2322741150856018,"1196":-0.5028252005577087,"1197":-0.9465930461883545,"1198":-0.4341369867324829,"1199":-0.47100508213043213,"1200":0.2891072630882263,"1201":-0.15389271080493927,"1202":-0.2910498082637787,"1203":0.4211852550506592,"1204":-1.51070237159729,"1205":1.5644375085830688,"1206":-0.3334854245185852,"1207":0.7776356339454651,"1208":0.8491896986961365,"1209":1.5491377115249634,"1210":0.8299508690834045,"1211":1.2617368698120117,"1212":-0.05518432706594467,"1213":1.232739806175232,"1214":0.5831536650657654,"1215":-0.1594996601343155,"1216":-0.6214258670806885,"1217":1.5951571464538574,"1218":0.2908104360103607,"1219":-0.06556126475334167,"1220":-0.9135987162590027,"1221":-0.17575055360794067,"1222":0.736635148525238,"1223":0.4375918209552765,"1224":0.12678876519203186,"1225":-0.36979785561561584,"1226":-0.5987299680709839,"1227":1.3624190092086792,"1228":0.5506716966629028,"1229":-0.18566447496414185,"1230":-0.4516984820365906,"1231":-0.4214719533920288,"1232":1.1741220951080322,"1233":-0.5969863533973694,"1234":-0.5495158433914185,"1235":0.43935278058052063,"1236":-0.35600244998931885,"1237":-1.8357648849487305,"1238":0.20611955225467682,"1239":-1.4427415132522583,"1240":0.6847367882728577,"1241":0.1629386842250824,"1242":-1.4455753564834595,"1243":-0.81613689661026,"1244":1.166201114654541,"1245":0.3421834707260132,"1246":0.5314657092094421,"1247":-0.475614458322525,"1248":-0.9632399082183838,"1249":-2.3208999633789062,"1250":-0.9284814596176147,"1251":-0.3162488341331482,"1252":0.28109079599380493,"1253":-1.3950324058532715,"1254":-0.5815483331680298,"1255":0.08913162350654602,"1256":-0.7983710169792175,"1257":-1.362061619758606,"1258":0.48845812678337097,"1259":0.4675908386707306,"1260":-0.9355869293212891,"1261":-0.5510543584823608,"1262":-0.12793564796447754,"1263":-0.2739145755767822,"1264":-1.1876009702682495,"1265":-0.3518344759941101,"1266":-0.35432836413383484,"1267":-0.4027225375175476,"1268":-0.8467215299606323,"1269":0.34699538350105286,"1270":-0.6632806062698364,"1271":1.653642177581787,"1272":1.095027208328247,"1273":-0.10940531641244888,"1274":0.5729750990867615,"1275":-0.7671326994895935,"1276":-0.12612633407115936,"1277":-1.0684285163879395,"1278":1.1628215312957764,"1279":1.3331706523895264,"1280":0.2935076057910919,"1281":0.380748987197876,"1282":0.2141198366880417,"1283":1.2155379056930542,"1284":-0.21744324266910553,"1285":-0.09639977663755417,"1286":-1.4448068141937256,"1287":-0.7670308351516724,"1288":0.5121389031410217,"1289":-0.12457779049873352,"1290":1.8145354986190796,"1291":-0.03099648468196392,"1292":0.4458561837673187,"1293":0.10835037380456924,"1294":-1.399890661239624,"1295":-0.5391333699226379,"1296":0.7955530285835266,"1297":0.3845232427120209,"1298":1.3064719438552856,"1299":0.6004335284233093,"1300":-1.1155545711517334,"1301":1.7391343116760254,"1302":-0.4850558638572693,"1303":-1.775009036064148,"1304":0.27050891518592834,"1305":-1.4889425039291382,"1306":0.43032851815223694,"1307":-0.6991056203842163,"1308":-1.3353819847106934,"1309":0.7132337093353271,"1310":-0.15195687115192413,"1311":1.1978472471237183,"1312":-1.7316807508468628,"1313":-1.1897755861282349,"1314":1.4800466299057007,"1315":-0.7989582419395447,"1316":0.3681015968322754,"1317":-0.04167589172720909,"1318":0.4244723916053772,"1319":-0.008067641407251358,"1320":0.5188472867012024,"1321":1.3027081489562988,"1322":-0.2361663281917572,"1323":0.058835066854953766,"1324":1.1162559986114502,"1325":-0.037223413586616516,"1326":0.4057462215423584,"1327":1.0321102142333984,"1328":-0.5441614389419556,"1329":-0.44360846281051636,"1330":-0.5603815913200378,"1331":0.9186790585517883,"1332":-0.2578957676887512,"1333":-0.7361899614334106,"1334":0.9719269275665283,"1335":-0.6187305450439453,"1336":-0.41101065278053284,"1337":-0.2688028812408447,"1338":-0.3527577817440033,"1339":-1.438495397567749,"1340":0.6905957460403442,"1341":-0.03316132724285126,"1342":0.5612573027610779,"1343":-1.009504795074463,"1344":-1.4168833494186401,"1345":-0.7492955327033997,"1346":1.5679348707199097,"1347":-0.5832884907722473,"1348":-1.0890809297561646,"1349":0.4504600763320923,"1350":0.4270714521408081,"1351":1.0205827951431274,"1352":-1.635529637336731,"1353":0.008114513009786606,"1354":0.2306521236896515,"1355":-0.7620261311531067,"1356":-0.21091698110103607,"1357":-0.14639587700366974,"1358":0.861737847328186,"1359":0.3257351219654083,"1360":-0.8766173124313354,"1361":0.4253772497177124,"1362":-1.2637271881103516,"1363":0.21708901226520538,"1364":0.7615266442298889,"1365":-0.4357745051383972,"1366":0.16901293396949768,"1367":0.06006854027509689,"1368":0.34719133377075195,"1369":-0.2555507719516754,"1370":-0.25450417399406433,"1371":-0.11867491900920868,"1372":-0.24433842301368713,"1373":0.1530943661928177,"1374":-0.39382368326187134,"1375":-0.23084253072738647,"1376":-1.6949900388717651,"1377":-1.373063564300537,"1378":-0.38236990571022034,"1379":-0.024968953803181648,"1380":-0.7361884713172913,"1381":-0.5782392024993896,"1382":1.6428685188293457,"1383":0.6825703382492065,"1384":2.9363622665405273,"1385":-0.6909094452857971,"1386":0.5853574275970459,"1387":-0.8034276366233826,"1388":-0.2721988558769226,"1389":1.6026017665863037,"1390":0.046364977955818176,"1391":0.44410306215286255,"1392":0.7054650187492371,"1393":0.9447959065437317,"1394":1.1185047626495361,"1395":-0.24628154933452606,"1396":-0.6453942656517029,"1397":-1.1539784669876099,"1398":-0.9207345247268677,"1399":0.16663102805614471,"1400":0.27578005194664,"1401":-0.26619860529899597,"1402":0.22342006862163544,"1403":1.6437408924102783,"1404":0.36918941140174866,"1405":-0.7564333081245422,"1406":-1.1906641721725464,"1407":-0.9332594275474548,"1408":1.2964779138565063,"1409":0.7099411487579346,"1410":0.6027101874351501,"1411":-0.9832437634468079,"1412":0.16253070533275604,"1413":0.812995195388794,"1414":0.7060132026672363,"1415":-1.8247705698013306,"1416":0.482454776763916,"1417":0.15424467623233795,"1418":2.470536470413208,"1419":-1.9346308708190918,"1420":0.09285856038331985,"1421":-0.39926397800445557,"1422":0.4975716173648834,"1423":-1.4766485691070557,"1424":-0.126761794090271,"1425":-0.8647651076316833,"1426":1.2512308359146118,"1427":0.4442313313484192,"1428":-0.765155017375946,"1429":1.1053154468536377,"1430":0.2870396077632904,"1431":1.8867428302764893,"1432":0.11052200198173523,"1433":0.5495062470436096,"1434":-0.7386563420295715,"1435":0.35901007056236267,"1436":-0.657833456993103,"1437":1.0964168310165405,"1438":-0.01240561529994011,"1439":-0.2272477149963379,"1440":-0.09202097356319427,"1441":0.15042132139205933,"1442":-1.2840113639831543,"1443":-0.6510266661643982,"1444":-1.4926332235336304,"1445":-0.8201702237129211,"1446":0.29168805480003357,"1447":-0.10630471259355545,"1448":-0.9747717976570129,"1449":1.4379241466522217,"1450":-1.30850350856781,"1451":-0.5273467898368835,"1452":0.9521185755729675,"1453":0.9153763055801392,"1454":-0.3472992181777954,"1455":-0.08453401923179626,"1456":0.6591331958770752,"1457":0.7633808255195618,"1458":1.5127490758895874,"1459":1.2893363237380981,"1460":1.467836856842041,"1461":0.5571681261062622,"1462":-0.7794819474220276,"1463":-0.039592862129211426,"1464":0.05294474959373474,"1465":0.3800000846385956,"1466":0.2934509515762329,"1467":-1.3060061931610107,"1468":0.650902271270752,"1469":0.27025285363197327,"1470":0.6915051937103271,"1471":-0.8528682589530945,"1472":0.054229892790317535,"1473":0.8759183883666992,"1474":1.035475730895996,"1475":-0.1254563331604004,"1476":0.10073772072792053,"1477":-0.9363024234771729,"1478":1.369393229484558,"1479":-0.6219920516014099,"1480":-1.759314775466919,"1481":-1.2684035301208496,"1482":0.45140886306762695,"1483":-0.3102586567401886,"1484":0.5843356847763062,"1485":0.5499720573425293,"1486":-0.7716035842895508,"1487":1.6692613363265991,"1488":2.609623670578003,"1489":1.4041831493377686,"1490":-0.3077639937400818,"1491":-0.9028152823448181,"1492":0.04164423793554306,"1493":0.7956797480583191,"1494":-0.7064199447631836,"1495":1.9513916969299316,"1496":-1.8362773656845093,"1497":0.885090708732605,"1498":-0.3665447533130646,"1499":-0.9593147039413452,"1500":0.11026910692453384,"1501":-0.10791175067424774,"1502":0.7214487791061401,"1503":0.42317670583724976,"1504":-0.8645218014717102,"1505":0.05399131402373314,"1506":-0.385720431804657,"1507":-0.6159990429878235,"1508":0.43836137652397156,"1509":0.2824200391769409,"1510":0.22810964286327362,"1511":0.6085107326507568,"1512":1.3045254945755005,"1513":1.0161454677581787,"1514":-0.07854858040809631,"1515":-0.28415489196777344,"1516":0.5479642152786255,"1517":-0.6595693230628967,"1518":0.20960494875907898,"1519":-1.4860354661941528,"1520":0.5661099553108215,"1521":0.834051251411438,"1522":-0.652073085308075,"1523":0.6949906945228577,"1524":0.46991947293281555,"1525":0.876523494720459,"1526":-0.0179249607026577,"1527":-1.111420750617981,"1528":0.8430671095848083,"1529":-1.2751036882400513,"1530":-0.020243043079972267,"1531":-2.113130807876587,"1532":0.2856549322605133,"1533":0.43725207448005676,"1534":1.8085607290267944,"1535":0.4438543915748596,"1536":-0.2952231764793396,"1537":-1.242666244506836,"1538":1.233743667602539,"1539":-0.3128773868083954,"1540":-0.3603953421115875,"1541":0.2023514211177826,"1542":-0.6980474591255188,"1543":-0.028929660096764565,"1544":-0.22958382964134216,"1545":-0.2763626277446747,"1546":-0.12825548648834229,"1547":1.01311194896698,"1548":-1.342305064201355,"1549":-0.2876463532447815,"1550":-0.9131932854652405,"1551":-0.4644392132759094,"1552":-1.4370741844177246,"1553":1.334580421447754,"1554":-1.4914312362670898,"1555":-0.8842355012893677,"1556":-0.9909165501594543,"1557":-0.5433362126350403,"1558":-0.3472853899002075,"1559":0.5458404421806335,"1560":-0.7442393898963928,"1561":0.37301579117774963,"1562":-1.4438812732696533,"1563":-1.2096205949783325,"1564":1.1186182498931885,"1565":1.4371668100357056,"1566":0.590599775314331,"1567":-0.12510909140110016,"1568":0.7074626684188843,"1569":0.6492348909378052,"1570":-0.25195208191871643,"1571":1.2806917428970337,"1572":0.6325745582580566,"1573":-0.61311936378479,"1574":-0.47871920466423035,"1575":-0.3016083836555481,"1576":1.1779602766036987,"1577":-0.3654685318470001,"1578":-0.8171854019165039,"1579":0.23950079083442688,"1580":0.3411507308483124,"1581":-0.652165949344635,"1582":-0.16296131908893585,"1583":-0.92173171043396,"1584":1.7797200679779053,"1585":-0.6881691813468933,"1586":1.0858349800109863,"1587":-0.6664748191833496,"1588":-1.632015347480774,"1589":-0.29483455419540405,"1590":1.5218170881271362,"1591":0.31215614080429077,"1592":0.5909610390663147,"1593":-0.27700650691986084,"1594":0.32861700654029846,"1595":0.4043469727039337,"1596":-0.027615373954176903,"1597":-0.2914508879184723,"1598":0.47258952260017395,"1599":-0.3082737922668457,"1600":1.8569128513336182,"1601":0.5061867833137512,"1602":-1.3287534713745117,"1603":0.4166969954967499,"1604":-0.3154955208301544,"1605":0.27530375123023987,"1606":-1.3984386920928955,"1607":-0.7495441436767578,"1608":-1.6447802782058716,"1609":0.99033123254776,"1610":-0.27007749676704407,"1611":0.7907516956329346,"1612":-0.19035272300243378,"1613":-1.470213532447815,"1614":-1.4245423078536987,"1615":2.078690767288208,"1616":-0.623997151851654,"1617":-0.6809764504432678,"1618":-0.47385141253471375,"1619":-1.559754490852356,"1620":0.9157267808914185,"1621":0.6225488185882568,"1622":0.3788833022117615,"1623":0.9115287661552429,"1624":-0.3628312051296234,"1625":-0.5615386366844177,"1626":0.2633798122406006,"1627":2.754948854446411,"1628":0.8005529046058655,"1629":-0.15896812081336975,"1630":-0.7516555190086365,"1631":1.1141657829284668,"1632":-0.4791456162929535,"1633":1.1240346431732178,"1634":0.46693018078804016,"1635":-0.27564358711242676,"1636":0.3507840037345886,"1637":0.7152234315872192,"1638":0.7062896490097046,"1639":-2.031306028366089,"1640":0.8937651515007019,"1641":-2.3392341136932373,"1642":-0.9784280061721802,"1643":1.142374873161316,"1644":-1.3916232585906982,"1645":0.44059523940086365,"1646":-0.8836202621459961,"1647":2.259342908859253,"1648":-0.6661777496337891,"1649":-0.40003329515457153,"1650":-0.45043379068374634,"1651":1.115077257156372,"1652":-0.8538357019424438,"1653":0.6809625625610352,"1654":-1.3553475141525269,"1655":-0.6326343417167664,"1656":1.2598613500595093,"1657":1.9607690572738647,"1658":0.5958768129348755,"1659":1.4298527240753174,"1660":-0.14341263473033905,"1661":0.940952479839325,"1662":0.6633279323577881,"1663":-0.14780890941619873,"1664":-1.6123145818710327,"1665":0.9030330777168274,"1666":0.7841196060180664,"1667":-0.416217178106308,"1668":-1.5437555313110352,"1669":-0.43565234541893005,"1670":-1.0860581398010254,"1671":-1.3628530502319336,"1672":3.8369555473327637,"1673":0.4474756121635437,"1674":-0.08428211510181427,"1675":-1.3392202854156494,"1676":1.3873950242996216,"1677":0.19027936458587646,"1678":0.18161316215991974,"1679":0.359468013048172,"1680":1.2895323038101196,"1681":0.08037620782852173,"1682":-1.447145700454712,"1683":-1.3288254737854004,"1684":-0.5788765549659729,"1685":0.5829313397407532,"1686":-0.18297097086906433,"1687":-0.37039411067962646,"1688":-0.5152207612991333,"1689":-1.6240758895874023,"1690":-1.219753384590149,"1691":-0.6096388697624207,"1692":-0.3234480619430542,"1693":-0.04644961655139923,"1694":-1.820503830909729,"1695":0.17791736125946045,"1696":-0.053740642964839935,"1697":-3.027071714401245,"1698":0.5020689368247986,"1699":-1.295831561088562,"1700":0.7016056776046753,"1701":-1.100265622138977,"1702":0.6815148591995239,"1703":0.5636727809906006,"1704":1.0123313665390015,"1705":-1.0315746068954468,"1706":-0.2071741670370102,"1707":1.7808115482330322,"1708":-0.8033316731452942,"1709":-0.6578353047370911,"1710":1.4859797954559326,"1711":-0.27233952283859253,"1712":-0.349139004945755,"1713":0.15298785269260406,"1714":2.0414936542510986,"1715":0.36950647830963135,"1716":-1.1260638236999512,"1717":1.2030307054519653,"1718":-0.7200254797935486,"1719":0.2404884248971939,"1720":0.32362639904022217,"1721":0.3305956721305847,"1722":-1.263739824295044,"1723":1.1049892902374268,"1724":0.8588573336601257,"1725":0.4817177355289459,"1726":2.1094532012939453,"1727":0.22789381444454193,"1728":-0.9228653907775879,"1729":-0.6829390525817871,"1730":-1.4562054872512817,"1731":0.9051114916801453,"1732":-0.050604939460754395,"1733":0.6617472767829895,"1734":-0.48552405834198,"1735":0.1687614619731903,"1736":-0.010897823609411716,"1737":-0.08898773044347763,"1738":0.2662172317504883,"1739":-0.040993161499500275,"1740":-0.5392128229141235,"1741":0.5105690956115723,"1742":-1.510278344154358,"1743":-0.37746238708496094,"1744":-0.9825968742370605,"1745":0.3789406716823578,"1746":1.0666663646697998,"1747":-1.1570600271224976,"1748":0.1718672811985016,"1749":-0.5080259442329407,"1750":-0.444936603307724,"1751":0.00017087574815377593,"1752":0.4637388288974762,"1753":1.6280622482299805,"1754":1.4450193643569946,"1755":0.04032669588923454,"1756":-0.09037095308303833,"1757":-0.5055347681045532,"1758":0.1586342602968216,"1759":-0.2385709583759308,"1760":1.496802806854248,"1761":-1.4085513353347778,"1762":-0.5738236308097839,"1763":0.41647210717201233,"1764":-1.2601182460784912,"1765":0.8868498802185059,"1766":0.5085587501525879,"1767":0.28152456879615784,"1768":0.386898934841156,"1769":0.883184015750885,"1770":0.898010790348053,"1771":1.100626826286316,"1772":-0.5790208578109741,"1773":0.8893722891807556,"1774":1.5470681190490723,"1775":-0.06977306306362152,"1776":1.14040207862854,"1777":0.6973763704299927,"1778":0.6765182018280029,"1779":-0.324422150850296,"1780":0.3348575234413147,"1781":0.5254790782928467,"1782":1.3902978897094727,"1783":1.4000070095062256,"1784":0.3674143850803375,"1785":0.7675159573554993,"1786":-0.520828902721405,"1787":1.2206501960754395,"1788":-0.3490062355995178,"1789":-0.4057624638080597,"1790":-0.4670230746269226,"1791":0.7912580966949463,"1792":0.41228678822517395,"1793":-0.47701412439346313,"1794":1.153624415397644,"1795":-0.6288489699363708,"1796":-1.827299952507019,"1797":0.4723885655403137,"1798":-0.4311524033546448,"1799":0.17352640628814697,"1800":-0.5322363376617432,"1801":0.7337737679481506,"1802":1.0920237302780151,"1803":0.20337159931659698,"1804":-0.5755876302719116,"1805":0.05453993007540703,"1806":0.7181066274642944,"1807":1.0458922386169434,"1808":0.14502495527267456,"1809":0.41297173500061035,"1810":0.022862982004880905,"1811":-0.22112320363521576,"1812":0.39270028471946716,"1813":0.6660771369934082,"1814":-1.8924167156219482,"1815":-0.9266690611839294,"1816":-0.31084442138671875,"1817":-0.19253185391426086,"1818":-0.8153782486915588,"1819":-0.6801318526268005,"1820":-0.02340971678495407,"1821":0.31353628635406494,"1822":1.7350245714187622,"1823":-1.542960524559021,"1824":-1.25186288356781,"1825":0.11616429686546326,"1826":1.095750331878662,"1827":-1.5796171426773071,"1828":-0.10032415390014648,"1829":0.5729186534881592,"1830":0.41843682527542114,"1831":-0.14301219582557678,"1832":1.0368512868881226,"1833":-1.2206664085388184,"1834":0.5755704045295715,"1835":1.611135482788086,"1836":2.1083450317382812,"1837":1.5624704360961914,"1838":0.10100678354501724,"1839":-0.9278006553649902,"1840":-0.2577017545700073,"1841":-0.6942368745803833,"1842":0.49278923869132996,"1843":0.7257591485977173,"1844":0.02863134630024433,"1845":-0.9235168695449829,"1846":0.6170804500579834,"1847":0.3113134801387787,"1848":0.4882652461528778,"1849":1.6753143072128296,"1850":-0.7154152989387512,"1851":-1.1897335052490234,"1852":-0.271422803401947,"1853":1.7918739318847656,"1854":-0.1288367360830307,"1855":0.6511052250862122,"1856":-0.4609295129776001,"1857":0.6830651164054871,"1858":-0.21332065761089325,"1859":-1.373005986213684,"1860":0.985778272151947,"1861":-1.0513445138931274,"1862":-0.30627763271331787,"1863":1.3446494340896606,"1864":0.1320911943912506,"1865":-0.03270387649536133,"1866":-0.22856174409389496,"1867":-0.37030482292175293,"1868":-1.1900230646133423,"1869":-0.4915500283241272,"1870":-0.6250087022781372,"1871":1.7114334106445312,"1872":0.40413516759872437,"1873":0.8577132821083069,"1874":-0.6767842769622803,"1875":-1.0724321603775024,"1876":-0.3880186676979065,"1877":-0.6017952561378479,"1878":-0.9321861267089844,"1879":1.0302855968475342,"1880":0.8290592432022095,"1881":0.4073232114315033,"1882":1.690353512763977,"1883":-0.7735719084739685,"1884":-1.208755373954773,"1885":1.1911906003952026,"1886":0.7840486168861389,"1887":-0.8757093548774719,"1888":0.6025753617286682,"1889":0.20413878560066223,"1890":-1.0390750169754028,"1891":0.9704512357711792,"1892":-0.2524009644985199,"1893":0.1507403701543808,"1894":0.9876907467842102,"1895":1.355489730834961,"1896":0.5486381649971008,"1897":1.72831392288208,"1898":-0.8354448676109314,"1899":-0.7093573212623596,"1900":-0.6948562264442444,"1901":2.5513763427734375,"1902":-0.399958997964859,"1903":0.6067171692848206,"1904":-0.2078457921743393,"1905":-0.660007894039154,"1906":-0.4097750186920166,"1907":0.815930187702179,"1908":0.7257034182548523,"1909":0.43082451820373535,"1910":0.19694241881370544,"1911":-0.34600409865379333,"1912":-0.5446711778640747,"1913":-0.220012828707695,"1914":0.15826165676116943,"1915":-0.24636326730251312,"1916":1.0187479257583618,"1917":0.22258618474006653,"1918":0.13669642806053162,"1919":-0.3879716694355011,"1920":1.0392005443572998,"1921":0.08125561475753784,"1922":0.008235657587647438,"1923":0.8049660921096802,"1924":1.5647611618041992,"1925":-0.473135381937027,"1926":-0.0376862958073616,"1927":-0.8668929934501648,"1928":1.191380500793457,"1929":0.3928510546684265,"1930":-0.8966782093048096,"1931":-0.506807267665863,"1932":-1.1004631519317627,"1933":1.1673246622085571,"1934":-0.35056155920028687,"1935":-0.25897514820098877,"1936":-1.6633706092834473,"1937":-1.898200273513794,"1938":-0.5898717045783997,"1939":-0.15014614164829254,"1940":-0.8977713584899902,"1941":-1.9762705564498901,"1942":1.4408189058303833,"1943":0.24989528954029083,"1944":0.6359195113182068,"1945":0.6921133399009705,"1946":0.4320584237575531,"1947":-0.8021107316017151,"1948":-0.698718786239624,"1949":0.2001049816608429,"1950":0.41193658113479614,"1951":0.4438088536262512,"1952":2.022178888320923,"1953":0.836503267288208,"1954":1.5972789525985718,"1955":-0.9339113235473633,"1956":-1.5332021713256836,"1957":-1.2773728370666504,"1958":0.3924066126346588,"1959":-0.5708550214767456,"1960":1.5108836889266968,"1961":0.7033683657646179,"1962":-0.6061512231826782,"1963":-0.5692849159240723,"1964":0.7888747453689575,"1965":-0.6922366619110107,"1966":-0.16908663511276245,"1967":-0.47684746980667114,"1968":1.1999455690383911,"1969":0.7171282172203064,"1970":-0.9793016314506531,"1971":0.9147402048110962,"1972":0.7748979926109314,"1973":1.0284289121627808,"1974":1.3437073230743408,"1975":-2.6362738609313965,"1976":0.7758350968360901,"1977":-1.8718738555908203,"1978":0.5292301177978516,"1979":-2.437547206878662,"1980":0.9629279375076294,"1981":-0.3073957562446594,"1982":0.5027784109115601,"1983":0.33006417751312256,"1984":-0.6119512915611267,"1985":-0.5424103736877441,"1986":0.09508601576089859,"1987":0.13555581867694855,"1988":-0.3462327718734741,"1989":-0.40351006388664246,"1990":-0.08153863996267319,"1991":0.46693331003189087,"1992":-0.7487146854400635,"1993":0.17592927813529968,"1994":-0.2656303942203522,"1995":0.012894397601485252,"1996":-1.44833505153656,"1997":0.06335506588220596,"1998":-0.7009686231613159,"1999":-0.2913913130760193,"2000":-0.5365756750106812,"2001":0.7062892317771912,"2002":-0.09873270243406296,"2003":0.01314129400998354,"2004":-0.5863051414489746,"2005":0.25406572222709656,"2006":-0.5447710156440735,"2007":1.6050020456314087,"2008":0.8788571357727051,"2009":0.008703043684363365,"2010":-1.0502139329910278,"2011":-1.9127906560897827,"2012":0.18566158413887024,"2013":0.6263052225112915,"2014":0.7211527228355408,"2015":0.7559046149253845,"2016":-0.12978847324848175,"2017":0.7765308618545532,"2018":-0.18508319556713104,"2019":-1.4210737943649292,"2020":0.4778519570827484,"2021":1.1734493970870972,"2022":-0.9837532043457031,"2023":0.48236167430877686,"2024":-0.2747896611690521,"2025":2.9682810306549072,"2026":1.0638750791549683,"2027":0.7344091534614563,"2028":-1.5082863569259644,"2029":-0.01654142141342163,"2030":0.08055007457733154,"2031":1.0439927577972412,"2032":-0.8139289021492004,"2033":0.6391810774803162,"2034":0.2450907826423645,"2035":-1.0020111799240112,"2036":-0.3569832444190979,"2037":3.2836735248565674,"2038":0.08950503170490265,"2039":0.27391934394836426,"2040":0.4472804665565491,"2041":-1.0336329936981201,"2042":-0.1251394897699356,"2043":-0.908180296421051,"2044":0.36404967308044434,"2045":1.6307183504104614,"2046":1.6972029209136963,"2047":-0.26028308272361755,"2048":0.4514792263507843,"2049":1.0456538200378418,"2050":0.8361079692840576,"2051":-0.6488257050514221,"2052":0.08311723172664642,"2053":0.044916413724422455,"2054":0.2676648497581482,"2055":-0.9858060479164124,"2056":-0.8110830187797546,"2057":0.05409543588757515,"2058":0.29703131318092346,"2059":0.7041903138160706,"2060":1.3174657821655273,"2061":-0.05780621990561485,"2062":-0.3254571259021759,"2063":-1.4975533485412598,"2064":-1.4292359352111816,"2065":-0.18283432722091675,"2066":-0.2059788852930069,"2067":1.130886435508728,"2068":-0.17405635118484497,"2069":0.20475511252880096,"2070":0.29032114148139954,"2071":0.6082369089126587,"2072":-0.6406099200248718,"2073":-0.7633107900619507,"2074":0.47116586565971375,"2075":-0.18922442197799683,"2076":-0.1795112043619156,"2077":1.60102379322052,"2078":0.08187103271484375,"2079":1.5559587478637695,"2080":1.214890480041504,"2081":0.534748375415802,"2082":0.060361918061971664,"2083":-1.1904700994491577,"2084":-0.011088517494499683,"2085":-0.4103895127773285,"2086":-0.24611414968967438,"2087":-1.2559411525726318,"2088":0.9767928719520569,"2089":-0.3708462715148926,"2090":1.0910629034042358,"2091":-1.245997667312622,"2092":0.03992779180407524,"2093":-0.1443464457988739,"2094":1.0023400783538818,"2095":0.4511159658432007,"2096":1.3618354797363281,"2097":-1.9709662199020386,"2098":-0.5608596205711365,"2099":1.2508769035339355,"2100":-1.4038691520690918,"2101":0.5815457701683044,"2102":-0.9023230671882629,"2103":0.2803545594215393,"2104":0.34111830592155457,"2105":0.7787238955497742,"2106":0.834492564201355,"2107":1.1903516054153442,"2108":-0.7749656438827515,"2109":2.0799007415771484,"2110":0.32702890038490295,"2111":1.1439846754074097,"2112":1.7053464651107788,"2113":1.4774589538574219,"2114":-0.299497127532959,"2115":0.10842279344797134,"2116":-0.2198825627565384,"2117":0.027793491259217262,"2118":0.37367576360702515,"2119":1.1936171054840088,"2120":1.014323353767395,"2121":1.017938256263733,"2122":-1.5313142538070679,"2123":0.3234625458717346,"2124":-0.11923176795244217,"2125":-0.3094709515571594,"2126":0.5347992181777954,"2127":1.1539350748062134,"2128":-0.7154214382171631,"2129":0.9402027726173401,"2130":0.5779934525489807,"2131":-0.2973285913467407,"2132":-0.09529413282871246,"2133":0.17988041043281555,"2134":-1.031406044960022,"2135":1.0411485433578491,"2136":0.0830213651061058,"2137":1.5269585847854614,"2138":1.23301100730896,"2139":0.9727110862731934,"2140":-0.7064409852027893,"2141":-0.4425370991230011,"2142":1.0700072050094604,"2143":0.6703678965568542,"2144":-0.7938020825386047,"2145":0.921657383441925,"2146":-0.30553996562957764,"2147":0.39228981733322144,"2148":-0.20212654769420624,"2149":1.7196508646011353,"2150":-0.7595705389976501,"2151":0.5142399668693542,"2152":0.5408774018287659,"2153":0.2044924944639206,"2154":-0.3696855306625366,"2155":-1.295139193534851,"2156":0.5560868978500366,"2157":1.1640620231628418,"2158":0.6393008232116699,"2159":-0.0727749764919281,"2160":0.016169801354408264,"2161":0.9780054092407227,"2162":0.9091441631317139,"2163":0.26382485032081604,"2164":1.1833933591842651,"2165":-0.009055058471858501,"2166":-0.19414082169532776,"2167":-0.4285474419593811,"2168":0.009055583737790585,"2169":-0.6615822911262512,"2170":0.22014357149600983,"2171":-1.2124747037887573,"2172":1.6149879693984985,"2173":-0.6676363945007324,"2174":-0.20030169188976288,"2175":-1.953874111175537,"2176":-0.3516131043434143,"2177":-0.4992261528968811,"2178":0.09078364074230194,"2179":-0.6880436539649963,"2180":-0.2011025995016098,"2181":0.6199378967285156,"2182":0.18301701545715332,"2183":-0.28342893719673157,"2184":0.44389012455940247,"2185":-0.04335077852010727,"2186":-0.16130223870277405,"2187":-0.5385602712631226,"2188":-2.475435972213745,"2189":2.4207780361175537,"2190":0.4092910587787628,"2191":0.595215380191803,"2192":-1.0604307651519775,"2193":-0.8566237092018127,"2194":-0.6499906182289124,"2195":0.13828523457050323,"2196":0.06781066954135895,"2197":0.5573212504386902,"2198":0.012378642335534096,"2199":2.093273878097534,"2200":0.1650650054216385,"2201":-0.5156882405281067,"2202":-1.1462857723236084,"2203":-0.06936252117156982,"2204":0.12710173428058624,"2205":0.0486183762550354,"2206":0.5438005328178406,"2207":0.5503742694854736,"2208":2.6200859546661377,"2209":0.45989173650741577,"2210":-0.025581857189536095,"2211":-0.6143487691879272,"2212":1.049856185913086,"2213":-1.7843594551086426,"2214":0.23831145465373993,"2215":-2.0698208808898926,"2216":-0.3968006372451782,"2217":-1.5977439880371094,"2218":0.03665463626384735,"2219":-1.2431838512420654,"2220":0.21640153229236603,"2221":-0.9315282106399536,"2222":0.7632712721824646,"2223":0.15342341363430023,"2224":-0.09974713623523712,"2225":-0.01298877876251936,"2226":1.4356333017349243,"2227":1.8400509357452393,"2228":0.07739696651697159,"2229":-0.294970840215683,"2230":-0.890034556388855,"2231":-0.2265862375497818,"2232":-0.7828673124313354,"2233":-0.5783891677856445,"2234":-0.764910876750946,"2235":1.7163053750991821,"2236":-0.4438541829586029,"2237":-0.010273033753037453,"2238":0.15742549300193787,"2239":0.2627144753932953,"2240":-0.6315248012542725,"2241":-0.9621353149414062,"2242":0.5041266679763794,"2243":-0.8279833793640137,"2244":0.9974962472915649,"2245":-2.1103906631469727,"2246":-0.7995211482048035,"2247":1.3477356433868408,"2248":-1.790869951248169,"2249":-0.14167062938213348,"2250":0.36596134305000305,"2251":-0.18884897232055664,"2252":0.7353709936141968,"2253":0.4543556869029999,"2254":-0.20464350283145905,"2255":-1.4816032648086548,"2256":1.2337946891784668,"2257":-2.5400443077087402,"2258":2.980736255645752,"2259":-0.039533309638500214,"2260":-0.09636454284191132,"2261":-0.9938106536865234,"2262":-1.8279986381530762,"2263":0.8729336261749268,"2264":0.2819996774196625,"2265":0.7893426418304443,"2266":0.19003808498382568,"2267":0.7609722018241882,"2268":-1.4749579429626465,"2269":0.6800273060798645,"2270":-0.9382292032241821,"2271":0.3260871171951294,"2272":-0.966876208782196,"2273":-0.6541450023651123,"2274":-0.4465136229991913,"2275":0.01943928748369217,"2276":-0.6173319220542908,"2277":1.8831276893615723,"2278":0.3362036347389221,"2279":-1.2783353328704834,"2280":1.949035882949829,"2281":0.09274750202894211,"2282":-0.18744398653507233,"2283":-2.2961931228637695,"2284":-0.35300782322883606,"2285":2.2041726112365723,"2286":1.2190066576004028,"2287":0.08113636821508408,"2288":2.081737518310547,"2289":0.1951635181903839,"2290":0.7987834811210632,"2291":-1.1549984216690063,"2292":0.6293954253196716,"2293":-0.07922323793172836,"2294":0.9064615964889526,"2295":-0.9824693202972412,"2296":0.08258796483278275,"2297":0.9490829706192017,"2298":0.11342351138591766,"2299":1.1484688520431519,"2300":0.1424410194158554,"2301":0.8531392216682434,"2302":-0.08596784621477127,"2303":-1.043455719947815,"2304":0.434135377407074,"2305":-0.223561093211174,"2306":0.6221385598182678,"2307":0.09112757444381714,"2308":0.08051934838294983,"2309":0.7787553071975708,"2310":-0.09419701248407364,"2311":-2.276989221572876,"2312":0.8915694952011108,"2313":-0.13351082801818848,"2314":1.4527684450149536,"2315":-0.18565811216831207,"2316":0.7050472497940063,"2317":-0.028017491102218628,"2318":0.9828996658325195,"2319":-1.7485319375991821,"2320":0.08736494928598404,"2321":-0.2840011417865753,"2322":0.4103163182735443,"2323":-0.5314291715621948,"2324":0.1818474978208542,"2325":0.8930563926696777,"2326":0.0035788596142083406,"2327":-0.1625014692544937,"2328":1.0603300333023071,"2329":0.2367803454399109,"2330":-0.0864720419049263,"2331":1.4108107089996338,"2332":-0.5574125647544861,"2333":-1.0918294191360474,"2334":-0.6230294704437256,"2335":-0.501427412033081,"2336":-1.96312415599823,"2337":-0.12182488292455673,"2338":-1.4964253902435303,"2339":1.4691816568374634,"2340":-1.583611011505127,"2341":-1.0797679424285889,"2342":0.1224210262298584,"2343":0.46739619970321655,"2344":-0.797296941280365,"2345":0.09899237006902695,"2346":-0.5883532762527466,"2347":-1.1092441082000732,"2348":1.2376471757888794,"2349":0.9959460496902466,"2350":1.301141381263733,"2351":0.019746024161577225,"2352":0.8507900238037109,"2353":2.222243309020996,"2354":-0.9993345141410828,"2355":-0.17186972498893738,"2356":-0.2897157669067383,"2357":-1.7222012281417847,"2358":-0.33142080903053284,"2359":0.19926156103610992,"2360":0.2290651947259903,"2361":-0.6376419067382812,"2362":-0.505010187625885,"2363":0.5620879530906677,"2364":1.8146613836288452,"2365":-0.8087258338928223,"2366":1.0838661193847656,"2367":-0.05976158380508423,"2368":1.1060853004455566,"2369":-0.46426844596862793,"2370":1.4883720874786377,"2371":-0.7123289108276367,"2372":-0.33177176117897034,"2373":-1.559700608253479,"2374":-0.5768163204193115,"2375":-1.0756810903549194,"2376":-1.6348309516906738,"2377":0.04198604077100754,"2378":0.3416065275669098,"2379":-0.46091192960739136,"2380":-1.0785460472106934,"2381":-1.1833724975585938,"2382":-1.2565816640853882,"2383":1.1807366609573364,"2384":-0.3158169388771057,"2385":0.4141698479652405,"2386":-0.9689542651176453,"2387":-1.7483936548233032,"2388":-0.761992871761322,"2389":0.8394100069999695,"2390":-1.8810230493545532,"2391":0.07047531008720398,"2392":0.25023213028907776,"2393":-0.044344350695610046,"2394":-0.10505108535289764,"2395":-1.3199230432510376,"2396":1.3633540868759155,"2397":0.37223267555236816,"2398":0.04592708870768547,"2399":0.36372455954551697,"2400":1.2614643573760986,"2401":1.377562403678894,"2402":0.05045844614505768,"2403":-1.5843515396118164,"2404":0.48267245292663574,"2405":1.1449884176254272,"2406":-0.393266886472702,"2407":0.7874881029129028,"2408":0.9282768964767456,"2409":-0.27356648445129395,"2410":1.2861902713775635,"2411":0.2822728753089905,"2412":-1.1339839696884155,"2413":-0.13410189747810364,"2414":-0.5670477151870728,"2415":-0.7647429704666138,"2416":0.7402393817901611,"2417":0.1919931024312973,"2418":1.6046513319015503,"2419":-1.3843014240264893,"2420":-3.5303757190704346,"2421":1.1449419260025024,"2422":-0.22823384404182434,"2423":-0.8859793543815613,"2424":1.1115474700927734,"2425":-1.1602948904037476,"2426":0.8825035691261292,"2427":-1.8303039073944092,"2428":1.0275683403015137,"2429":-0.6152744889259338,"2430":0.6791650652885437,"2431":-0.9014015197753906,"2432":-0.8764543533325195,"2433":-1.9494924545288086,"2434":1.5071567296981812,"2435":-0.3599272668361664,"2436":0.6835296750068665,"2437":0.7510033845901489,"2438":0.6182446479797363,"2439":0.4368850290775299,"2440":-1.0278912782669067,"2441":-0.920159637928009,"2442":-0.6178613305091858,"2443":-1.2357778549194336,"2444":0.6250873804092407,"2445":0.44505104422569275,"2446":-0.12023129314184189,"2447":0.6579374074935913,"2448":1.199904203414917,"2449":-0.4356934726238251,"2450":-0.4534393846988678,"2451":1.3962165117263794,"2452":-0.26186463236808777,"2453":-0.8589469790458679,"2454":0.7163218259811401,"2455":-1.138884425163269,"2456":-2.358048439025879,"2457":1.0978609323501587,"2458":0.100884810090065,"2459":1.0001343488693237,"2460":-0.8365110158920288,"2461":-1.226051688194275,"2462":-0.3649097979068756,"2463":0.13181249797344208,"2464":0.796307384967804,"2465":-0.6792232990264893,"2466":0.1712360829114914,"2467":-0.9343587160110474,"2468":-1.1409022808074951,"2469":2.0121984481811523,"2470":-1.764517903327942,"2471":0.04041432961821556,"2472":0.14326803386211395,"2473":-0.931495189666748,"2474":0.8876949548721313,"2475":2.0338377952575684,"2476":-1.0797914266586304,"2477":1.4267241954803467,"2478":-0.8010130524635315,"2479":0.6275578737258911,"2480":1.409125804901123,"2481":-0.22747021913528442,"2482":0.3081360459327698,"2483":-0.1793099343776703,"2484":-0.9872270226478577,"2485":0.7501118779182434,"2486":-1.5839715003967285,"2487":2.099813938140869,"2488":1.2923386096954346,"2489":0.7686875462532043,"2490":0.6648107767105103,"2491":-1.4438138008117676,"2492":0.25124436616897583,"2493":0.2768317461013794,"2494":0.8897746205329895,"2495":-2.995633602142334,"2496":-0.5813209414482117,"2497":1.0874487161636353,"2498":1.7746493816375732,"2499":0.13080734014511108,"2500":0.7374844551086426,"2501":-0.5162365436553955,"2502":0.0837816447019577,"2503":-0.39925819635391235,"2504":-1.0853214263916016,"2505":-0.14222948253154755,"2506":-0.5378188490867615,"2507":0.5129616260528564,"2508":0.43918293714523315,"2509":-0.7957837581634521,"2510":-0.5885949730873108,"2511":-1.1767815351486206,"2512":0.27138155698776245,"2513":-1.4651298522949219,"2514":-0.2458517700433731,"2515":1.0553773641586304,"2516":0.91107577085495,"2517":-0.4402068257331848,"2518":1.1867684125900269,"2519":-2.363124132156372,"2520":-0.653984785079956,"2521":0.6049519777297974,"2522":1.3665419816970825,"2523":0.23989249765872955,"2524":0.6464059352874756,"2525":-0.015212086960673332,"2526":-0.7600170969963074,"2527":-0.3777754008769989,"2528":-0.030176352709531784,"2529":0.6190634965896606,"2530":0.6884320974349976,"2531":-0.23324091732501984,"2532":0.0494779571890831,"2533":2.345649003982544,"2534":-1.0016649961471558,"2535":-2.4855549335479736,"2536":-0.8671196103096008,"2537":1.556136131286621,"2538":2.470470905303955,"2539":-0.23790930211544037,"2540":0.12027079612016678,"2541":0.07025262713432312,"2542":1.6571165323257446,"2543":-1.0400059223175049,"2544":-2.758054733276367,"2545":-1.5868397951126099,"2546":0.8956876993179321,"2547":-0.08108966052532196,"2548":-0.6399040222167969,"2549":1.8494319915771484,"2550":0.09598825871944427,"2551":0.13004805147647858,"2552":0.07093250751495361,"2553":1.166395902633667,"2554":-0.10850753635168076,"2555":1.2708977460861206,"2556":-0.13194477558135986,"2557":-0.07213176786899567,"2558":0.2315911054611206,"2559":0.2638630270957947,"2560":0.3389304578304291,"2561":-0.20176997780799866,"2562":0.007640657480806112,"2563":-0.08975762873888016,"2564":-1.2150721549987793,"2565":-0.0979728251695633,"2566":1.6208164691925049,"2567":0.23392373323440552,"2568":0.1374647468328476,"2569":-0.7417532205581665,"2570":-0.6924384832382202,"2571":-0.24864330887794495,"2572":1.4821923971176147,"2573":-0.4742491543292999,"2574":-0.11635512858629227,"2575":-1.2318764925003052,"2576":1.1876567602157593,"2577":-0.2913588285446167,"2578":0.15024428069591522,"2579":-0.5722252726554871,"2580":0.5066303610801697,"2581":-1.7138131856918335,"2582":-0.19992797076702118,"2583":0.31708693504333496,"2584":-0.0669969916343689,"2585":0.7353315353393555,"2586":0.3052480220794678,"2587":-0.43421104550361633,"2588":-0.056454144418239594,"2589":1.0274779796600342,"2590":1.299275279045105,"2591":0.8792433142662048,"2592":0.07542873919010162,"2593":-0.07481351494789124,"2594":-0.08423461765050888,"2595":-0.6227956414222717,"2596":0.6369300484657288,"2597":0.36790284514427185,"2598":0.346891313791275,"2599":0.45532143115997314,"2600":-0.9827588200569153,"2601":1.0647010803222656,"2602":1.5100693702697754,"2603":0.4848698377609253,"2604":-0.10332757979631424,"2605":-0.14985531568527222,"2606":1.4795011281967163,"2607":0.16237689554691315,"2608":-0.33662888407707214,"2609":0.32674288749694824,"2610":1.4304536581039429,"2611":0.8144649863243103,"2612":-0.2557428777217865,"2613":1.7599631547927856,"2614":1.1242581605911255,"2615":-0.582649827003479,"2616":0.73786860704422,"2617":1.7352306842803955,"2618":-0.9023820757865906,"2619":-0.8977127075195312,"2620":0.868259847164154,"2621":0.4257364869117737,"2622":0.7158539295196533,"2623":-0.8161920309066772,"2624":0.2173740267753601,"2625":-0.9791828393936157,"2626":-0.43302401900291443,"2627":0.537066638469696,"2628":1.5546902418136597,"2629":0.6587990522384644,"2630":1.1979936361312866,"2631":-1.7496174573898315,"2632":0.29058951139450073,"2633":-0.8652017116546631,"2634":-0.40138155221939087,"2635":-0.4048404395580292,"2636":0.5332247018814087,"2637":-1.21627676486969,"2638":-0.931884229183197,"2639":0.5336030125617981,"2640":-0.09771457314491272,"2641":0.70517897605896,"2642":0.174982950091362,"2643":-0.3055211305618286,"2644":1.185078740119934,"2645":-0.86082923412323,"2646":0.91559237241745,"2647":-1.5071874856948853,"2648":0.19937463104724884,"2649":-1.1450947523117065,"2650":-0.14685262739658356,"2651":-0.12947988510131836,"2652":-0.0811145231127739,"2653":-0.45491933822631836,"2654":0.1669481098651886,"2655":-0.6893329620361328,"2656":-0.27146369218826294,"2657":-1.0169395208358765,"2658":-1.0574994087219238,"2659":0.6855832934379578,"2660":-1.2139339447021484,"2661":0.5256998538970947,"2662":-0.5571863055229187,"2663":0.1357877403497696,"2664":0.18216775357723236,"2665":0.8232228755950928,"2666":1.1131163835525513,"2667":0.150106281042099,"2668":-0.9226853251457214,"2669":0.8694700002670288,"2670":-0.20819373428821564,"2671":0.27003663778305054,"2672":0.7035155892372131,"2673":-0.42036864161491394,"2674":0.8772615790367126,"2675":-0.12321468442678452,"2676":0.8845629096031189,"2677":1.2685569524765015,"2678":1.5071953535079956,"2679":0.7926465272903442,"2680":0.9542170763015747,"2681":-2.0603387355804443,"2682":0.01955864392220974,"2683":1.2102689743041992,"2684":-0.5221956372261047,"2685":0.29653844237327576,"2686":-0.7901110053062439,"2687":0.8055559992790222,"2688":1.4573434591293335,"2689":0.5087692737579346,"2690":-2.6921157836914062,"2691":-1.029309868812561,"2692":-0.5628171563148499,"2693":1.4775193929672241,"2694":-0.49679720401763916,"2695":-0.1508881002664566,"2696":0.8906965851783752,"2697":0.03892682492733002,"2698":-0.08229982852935791,"2699":-0.6769391894340515,"2700":0.43709835410118103,"2701":0.46654555201530457,"2702":-0.04256483539938927,"2703":-0.5836074948310852,"2704":-0.265295147895813,"2705":-2.1253185272216797,"2706":2.188058853149414,"2707":-1.372584581375122,"2708":0.4619525074958801,"2709":-0.5728352069854736,"2710":0.907307505607605,"2711":-0.0025218199007213116,"2712":0.37104377150535583,"2713":-3.601426839828491,"2714":-0.45121127367019653,"2715":-0.07940372079610825,"2716":-1.938245177268982,"2717":-0.7042806148529053,"2718":-0.05527011305093765,"2719":0.3971278965473175,"2720":-0.9546391367912292,"2721":1.6221996545791626,"2722":-0.3054705262184143,"2723":-0.7259299159049988,"2724":-0.6525227427482605,"2725":0.977733850479126,"2726":0.9775403738021851,"2727":0.8694778084754944,"2728":0.5293970704078674,"2729":-0.0060645476914942265,"2730":-0.4807475805282593,"2731":1.893749713897705,"2732":-1.4204546213150024,"2733":-0.3841150403022766,"2734":0.9011023044586182,"2735":0.7599292993545532,"2736":0.11493247747421265,"2737":1.1227339506149292,"2738":-0.6288212537765503,"2739":-0.5719726085662842,"2740":0.0787084698677063,"2741":0.07002938538789749,"2742":-1.5346291065216064,"2743":1.6594511270523071,"2744":-0.774854838848114,"2745":-0.2023429274559021,"2746":-1.1102839708328247,"2747":-0.45528513193130493,"2748":0.10965806990861893,"2749":1.9004358053207397,"2750":-0.43708717823028564,"2751":1.7100855112075806,"2752":-1.9197406768798828,"2753":0.13847170770168304,"2754":0.45958182215690613,"2755":-0.1469985693693161,"2756":-0.19296051561832428,"2757":-0.5293906331062317,"2758":-0.33889320492744446,"2759":1.8954651355743408,"2760":1.4097309112548828,"2761":-1.028411865234375,"2762":0.48690468072891235,"2763":0.8345370292663574,"2764":-1.1579184532165527,"2765":-0.16034133732318878,"2766":-1.5785458087921143,"2767":1.9204775094985962,"2768":1.7316397428512573,"2769":2.305213689804077,"2770":-0.9148513078689575,"2771":-0.8461588025093079,"2772":-0.10554821044206619,"2773":-1.5921804904937744,"2774":-0.25147897005081177,"2775":0.4191126227378845,"2776":1.0087378025054932,"2777":1.459942102432251,"2778":1.7571173906326294,"2779":-0.7649508118629456,"2780":1.122412919998169,"2781":1.0295228958129883,"2782":1.5685614347457886,"2783":-0.10039082169532776,"2784":-0.6768504977226257,"2785":-0.9211023449897766,"2786":0.47190701961517334,"2787":-0.14716088771820068,"2788":-0.2104473114013672,"2789":-0.5433473587036133,"2790":0.04810251668095589,"2791":-1.3824856281280518,"2792":1.1239161491394043,"2793":-0.29073095321655273,"2794":1.086788535118103,"2795":-1.913642406463623,"2796":-0.9110289216041565,"2797":-0.42765286564826965,"2798":-0.46197569370269775,"2799":1.7188663482666016,"2800":1.0410162210464478,"2801":1.0850987434387207,"2802":-0.13395345211029053,"2803":-0.5342559218406677,"2804":-3.5071754455566406,"2805":-3.414466142654419,"2806":0.9724900126457214,"2807":0.19877609610557556,"2808":0.5686704516410828,"2809":0.43710857629776,"2810":-1.4436044692993164,"2811":1.0450787544250488,"2812":1.5070738792419434,"2813":0.25965163111686707,"2814":1.3825806379318237,"2815":2.233971118927002,"2816":-3.0161499977111816,"2817":1.757544994354248,"2818":-3.9718809127807617,"2819":-0.2392864227294922,"2820":-0.13097518682479858,"2821":-1.2505815029144287,"2822":-0.6290803551673889,"2823":1.1235861778259277,"2824":0.7024025321006775,"2825":-0.7967281937599182,"2826":1.5626758337020874,"2827":-0.40259695053100586,"2828":0.9252719879150391,"2829":-3.50179386138916,"2830":-2.4881670475006104,"2831":0.4599783718585968,"2832":-1.3272114992141724,"2833":-0.48646044731140137,"2834":-0.7545174956321716,"2835":1.915105938911438,"2836":0.3042839467525482,"2837":-0.5304734110832214,"2838":-2.5497517585754395,"2839":-0.05681831017136574,"2840":-2.3339192867279053,"2841":0.04890759661793709,"2842":-0.9048076868057251,"2843":-1.0119057893753052,"2844":-0.8809291124343872,"2845":-1.5216552019119263,"2846":-2.8304269313812256,"2847":-0.05452781170606613,"2848":1.3596948385238647,"2849":-0.0783996507525444,"2850":-1.9182274341583252,"2851":0.5340498685836792,"2852":2.1464405059814453,"2853":2.835176706314087,"2854":-1.1847389936447144,"2855":-0.24360066652297974,"2856":0.12745796144008636,"2857":0.44871875643730164,"2858":-1.5817394256591797,"2859":-2.650660276412964,"2860":-0.2700282037258148,"2861":-1.192246675491333,"2862":1.1643357276916504,"2863":-0.4375101923942566,"2864":-2.188713550567627,"2865":-3.7876594066619873,"2866":0.15749667584896088,"2867":1.7964375019073486,"2868":2.668125867843628,"2869":-1.4333380460739136,"2870":-3.9413416385650635,"2871":-0.679937481880188,"2872":3.3727147579193115,"2873":-3.094309091567993,"2874":-0.539333701133728,"2875":1.4502025842666626,"2876":-1.6747617721557617,"2877":-0.9259287118911743,"2878":-0.2522566616535187,"2879":0.548376739025116,"2880":-1.0557520389556885,"2881":0.5450512766838074,"2882":-1.6834722757339478,"2883":-0.5494542717933655,"2884":-0.7678820490837097,"2885":-3.2299602031707764,"2886":-2.129580020904541,"2887":-2.4362080097198486,"2888":-2.7083170413970947,"2889":0.616676390171051,"2890":5.018169403076172,"2891":-1.6149498224258423,"2892":-1.3973524570465088,"2893":-2.0389325618743896,"2894":-2.034231662750244,"2895":2.598388433456421,"2896":1.446467638015747,"2897":-0.07825218886137009,"2898":1.3260116577148438,"2899":2.288517475128174,"2900":0.8368493914604187,"2901":4.320082664489746,"2902":2.954188823699951,"2903":2.092327833175659,"2904":2.7476999759674072,"2905":0.35717102885246277,"2906":1.1995506286621094,"2907":-2.543527603149414,"2908":-0.06023608520627022,"2909":-0.13170978426933289,"2910":0.03167962655425072,"2911":1.7267999649047852,"2912":2.343721628189087,"2913":-0.45192503929138184,"2914":-2.189331531524658,"2915":0.5686053037643433,"2916":2.4398603439331055,"2917":3.230745553970337,"2918":0.1528307944536209,"2919":-0.6447991728782654,"2920":-1.2530659437179565,"2921":-0.13449691236019135,"2922":-0.6092880368232727,"2923":-0.32654014229774475,"2924":1.7766294479370117,"2925":-1.872908592224121,"2926":-1.3139241933822632,"2927":-1.324808120727539,"2928":0.055119555443525314,"2929":-3.3787715435028076,"2930":2.531804084777832,"2931":0.9282869696617126,"2932":-3.6453890800476074,"2933":-1.2533601522445679,"2934":-1.058794379234314,"2935":1.2544317245483398,"2936":-1.916905164718628,"2937":-1.5703330039978027,"2938":-1.7234026193618774,"2939":0.02546776458621025,"2940":-1.5510215759277344,"2941":-1.2634356021881104,"2942":-1.354249119758606,"2943":-0.6539126038551331,"2944":2.2314531803131104,"2945":2.11629319190979,"2946":2.0558290481567383,"2947":-1.127905011177063,"2948":-1.485310435295105,"2949":-1.3343583345413208,"2950":-0.5399503111839294,"2951":0.7973692417144775,"2952":-1.4910218715667725,"2953":0.5104528665542603,"2954":0.5858296155929565,"2955":-0.05405019223690033,"2956":-0.5104484558105469,"2957":0.361576110124588,"2958":1.6536048650741577,"2959":0.9662342071533203,"2960":2.998541831970215,"2961":0.10590824484825134,"2962":1.140339970588684,"2963":-2.1522767543792725,"2964":1.7981425523757935,"2965":-1.4202622175216675,"2966":-0.5068048238754272,"2967":0.968769371509552,"2968":-3.9292705059051514,"2969":-1.9483778476715088,"2970":-1.0417836904525757,"2971":0.33186882734298706,"2972":0.007081845309585333,"2973":-2.972029447555542,"2974":1.916197419166565,"2975":1.1768311262130737,"2976":-0.02151203714311123,"2977":-0.17640537023544312,"2978":1.1278795003890991,"2979":-1.4429646730422974,"2980":0.5251403450965881,"2981":-2.3557651042938232,"2982":1.1182481050491333,"2983":-1.7343603372573853,"2984":-0.07421852648258209,"2985":-1.036547303199768,"2986":0.6180179119110107,"2987":2.155932664871216,"2988":0.3951994478702545,"2989":-2.3317770957946777,"2990":1.1294224262237549,"2991":-0.46477946639060974,"2992":-1.8518437147140503,"2993":-0.7834944725036621,"2994":0.6054435968399048,"2995":0.13295671343803406,"2996":-0.4419165253639221,"2997":-1.4384713172912598,"2998":-3.0126121044158936,"2999":1.643136739730835,"3000":0.4108598530292511,"3001":0.1888321489095688,"3002":0.919431209564209,"3003":-0.47038769721984863,"3004":-0.5709888935089111,"3005":-2.27569580078125,"3006":0.5317354202270508,"3007":2.090998649597168,"3008":2.030216932296753,"3009":-1.2503751516342163,"3010":-0.04144173488020897,"3011":1.314878225326538,"3012":-0.3916325867176056,"3013":4.286828994750977,"3014":2.0801055431365967,"3015":1.060980200767517,"3016":2.7322170734405518,"3017":1.5746309757232666,"3018":0.1705799400806427,"3019":-1.133453369140625,"3020":-1.2956756353378296,"3021":1.186803936958313,"3022":-1.730472207069397,"3023":1.1627238988876343,"3024":-1.591202735900879,"3025":0.033958662301301956,"3026":-0.7304485440254211,"3027":0.8674140572547913,"3028":-0.08082736283540726,"3029":-0.2278575897216797,"3030":2.7682464122772217,"3031":-0.8267790079116821,"3032":-0.13891108334064484,"3033":-1.4385706186294556,"3034":-0.5602281093597412,"3035":-1.371230125427246,"3036":0.5387637615203857,"3037":-0.9572102427482605,"3038":-1.4169834852218628,"3039":-0.061982523649930954,"3040":-0.8621068000793457,"3041":0.06926316022872925,"3042":-3.6331605911254883,"3043":2.045065402984619,"3044":-2.0338828563690186,"3045":-1.7831904888153076,"3046":2.225752830505371,"3047":1.032852292060852,"3048":-1.5051732063293457,"3049":-0.005172873847186565,"3050":-0.9086712002754211,"3051":2.6507463455200195,"3052":-0.11259423941373825,"3053":-3.306685209274292,"3054":-4.445525169372559,"3055":0.6385905742645264,"3056":0.022650517523288727,"3057":-1.2039871215820312,"3058":-1.6866146326065063,"3059":1.006514072418213,"3060":-1.3570737838745117,"3061":-3.904897451400757,"3062":2.553176164627075,"3063":3.176870584487915,"3064":0.679542064666748,"3065":0.15432125329971313,"3066":1.0514487028121948,"3067":2.165714740753174,"3068":-3.2748544216156006,"3069":-0.1560754030942917,"3070":-1.3523058891296387,"3071":1.6736952066421509,"3072":0.5981870293617249,"3073":5.6189374923706055,"3074":2.113518714904785,"3075":-3.199803590774536,"3076":-1.3070340156555176,"3077":-1.623035192489624,"3078":-0.5927361845970154,"3079":0.8615880608558655,"3080":-0.788472056388855,"3081":-0.2889869511127472,"3082":0.5102419853210449,"3083":-2.0591318607330322,"3084":0.4773769974708557,"3085":-0.47326040267944336,"3086":-1.4472367763519287,"3087":-0.24369975924491882,"3088":-0.6369901895523071,"3089":0.49984055757522583,"3090":1.2404145002365112,"3091":-1.8418323993682861,"3092":0.1978626847267151,"3093":-0.23045463860034943,"3094":0.13828328251838684,"3095":0.49529653787612915,"3096":-0.715054452419281,"3097":0.8543931245803833,"3098":-0.5483343601226807,"3099":0.2813619375228882,"3100":-1.4448621273040771,"3101":-1.3031543493270874,"3102":-0.46586957573890686,"3103":0.03381405398249626,"3104":-1.6100376844406128,"3105":-0.7799785733222961,"3106":-0.4572484493255615,"3107":-1.135406732559204,"3108":-1.1634670495986938,"3109":-0.7484540343284607,"3110":-1.8649715185165405,"3111":0.9108385443687439,"3112":-0.4984573423862457,"3113":1.0369542837142944,"3114":-2.1720802783966064,"3115":0.21998202800750732,"3116":1.354569435119629,"3117":0.18146124482154846,"3118":-0.9450230002403259,"3119":1.701127529144287,"3120":1.7172844409942627,"3121":-0.7632723450660706,"3122":0.6425133347511292,"3123":-1.0499179363250732,"3124":0.9685668349266052,"3125":-0.2893081605434418,"3126":0.9799501299858093,"3127":1.5039087533950806,"3128":0.8938851952552795,"3129":0.412600576877594,"3130":0.711048424243927,"3131":1.0429222583770752,"3132":-0.34709984064102173,"3133":-1.2317748069763184,"3134":-1.1973248720169067,"3135":0.6409216523170471,"3136":-0.4602060914039612,"3137":-0.48513132333755493,"3138":0.18363501131534576,"3139":-0.6694979071617126,"3140":-0.05734008550643921,"3141":0.9989369511604309,"3142":-0.49077126383781433,"3143":0.3890417516231537,"3144":-1.0590938329696655,"3145":-0.32299306988716125,"3146":-0.023132383823394775,"3147":-0.4308229386806488,"3148":0.19655261933803558,"3149":-1.4222967624664307,"3150":-0.8994621634483337,"3151":0.29612717032432556,"3152":-0.9675626754760742,"3153":-0.027730174362659454,"3154":0.022962519899010658,"3155":0.5165777802467346,"3156":-1.2538368701934814,"3157":-1.0824164152145386,"3158":-1.2732315063476562,"3159":1.8935770988464355,"3160":-0.026350846514105797,"3161":-0.7120965123176575,"3162":-1.2434427738189697,"3163":-0.43441665172576904,"3164":0.29622921347618103,"3165":-0.9123799204826355,"3166":0.30860674381256104,"3167":-1.8003963232040405,"3168":-0.20911356806755066,"3169":0.5516654849052429,"3170":-0.326864093542099,"3171":-0.899616003036499,"3172":0.1181403398513794,"3173":0.12329527735710144,"3174":-0.7823730111122131,"3175":0.354462206363678,"3176":1.1369487047195435,"3177":-0.9938414692878723,"3178":1.2056125402450562,"3179":-0.4841594099998474,"3180":1.1579447984695435,"3181":-0.8050432205200195,"3182":0.13316336274147034,"3183":1.4970571994781494,"3184":0.38302963972091675,"3185":-1.320031762123108,"3186":1.1203495264053345,"3187":0.49723437428474426,"3188":-0.6273025274276733,"3189":-1.0682289600372314,"3190":-1.9800224304199219,"3191":0.3438569903373718}},"hiddenLayers":[{"updateGateInputMatrix":{"rows":20,"columns":56,"weights":{"0":-0.15740437805652618,"1":1.0856297016143799,"2":0.882789134979248,"3":-0.615085244178772,"4":0.8772200345993042,"5":-1.3084815740585327,"6":-0.09497009217739105,"7":0.7808107733726501,"8":0.9084024429321289,"9":0.3709239959716797,"10":-0.6264119148254395,"11":0.7799711227416992,"12":1.0451626777648926,"13":-0.7575511336326599,"14":0.7993098497390747,"15":0.19311583042144775,"16":-3.2687671184539795,"17":0.6158819198608398,"18":-1.0714447498321533,"19":0.625934898853302,"20":-0.03755175322294235,"21":0.2132115513086319,"22":0.04908241331577301,"23":-0.32613661885261536,"24":-1.5258159637451172,"25":-0.6780422925949097,"26":0.27031585574150085,"27":0.3671551048755646,"28":0.7470935583114624,"29":0.1657641977071762,"30":0.23174482583999634,"31":-0.0064375996589660645,"32":-0.24684037268161774,"33":-0.25457727909088135,"34":-1.2308685779571533,"35":-0.37354445457458496,"36":0.693578839302063,"37":-0.061026185750961304,"38":-1.429673671722412,"39":-0.6789125204086304,"40":0.32753321528434753,"41":-0.7386816740036011,"42":1.4600051641464233,"43":-1.127997875213623,"44":2.0618045330047607,"45":-0.42640161514282227,"46":0.033128369599580765,"47":-0.6867173910140991,"48":-0.25758394598960876,"49":-1.3656303882598877,"50":0.2881214916706085,"51":0.12532812356948853,"52":-0.5537649393081665,"53":1.3045016527175903,"54":-0.29369890689849854,"55":-0.005904379300773144,"56":-0.28140756487846375,"57":0.7953125834465027,"58":0.070060595870018,"59":1.5956798791885376,"60":0.5911456346511841,"61":-0.1936667561531067,"62":0.5960801243782043,"63":0.3433551788330078,"64":-0.29267942905426025,"65":-0.8944476246833801,"66":-0.5039030909538269,"67":-0.3299489915370941,"68":0.5046613812446594,"69":-0.4407990872859955,"70":0.42371493577957153,"71":-0.6958556175231934,"72":0.5318828225135803,"73":-0.0899558961391449,"74":0.09708382934331894,"75":3.0430948734283447,"76":0.8569721579551697,"77":-0.14022386074066162,"78":0.52753746509552,"79":-0.14644142985343933,"80":0.5680752992630005,"81":-0.22866341471672058,"82":-0.7222701907157898,"83":-0.18302220106124878,"84":-0.18071013689041138,"85":0.339262455701828,"86":0.08477192372083664,"87":-0.7076404690742493,"88":1.013949990272522,"89":0.414950430393219,"90":0.40101027488708496,"91":-0.37125155329704285,"92":0.5283296704292297,"93":-0.753670334815979,"94":-0.30299636721611023,"95":0.8724585771560669,"96":-1.7626856565475464,"97":0.48472079634666443,"98":1.6481330394744873,"99":0.2032933235168457,"100":-0.7640571594238281,"101":-0.7232696413993835,"102":0.4616392254829407,"103":-0.8211497068405151,"104":0.08296732604503632,"105":-0.9618687033653259,"106":1.3832939863204956,"107":-0.8414124846458435,"108":-0.6847893595695496,"109":0.7349063158035278,"110":0.0228235125541687,"111":1.0612319707870483,"112":-0.8562514185905457,"113":1.0550233125686646,"114":0.6490465998649597,"115":0.28108033537864685,"116":0.15717118978500366,"117":0.2748735249042511,"118":0.4037288427352905,"119":1.8993242979049683,"120":-0.31796079874038696,"121":-1.0142104625701904,"122":0.07863564789295197,"123":0.00685577467083931,"124":0.3250693678855896,"125":-1.236070990562439,"126":0.25428101420402527,"127":0.6048088073730469,"128":0.6263241767883301,"129":1.27985680103302,"130":-0.8140206933021545,"131":1.0244060754776,"132":0.1683281660079956,"133":-0.13943594694137573,"134":0.3246593177318573,"135":0.12496504932641983,"136":-0.18680712580680847,"137":0.7997063398361206,"138":-1.0745606422424316,"139":-0.12200640887022018,"140":0.33363208174705505,"141":-0.7445437908172607,"142":0.19685472548007965,"143":0.3938424289226532,"144":-0.1439276933670044,"145":-0.3456214368343353,"146":-0.04795004054903984,"147":-1.1374378204345703,"148":0.25329911708831787,"149":-0.7192515730857849,"150":0.8545801639556885,"151":0.5128354430198669,"152":-0.3681519627571106,"153":-0.08992940932512283,"154":1.705016851425171,"155":0.29423069953918457,"156":-0.07331907749176025,"157":0.536594808101654,"158":0.43990471959114075,"159":-0.3640481233596802,"160":-0.22817330062389374,"161":-0.2277030348777771,"162":0.7248328924179077,"163":-0.40652981400489807,"164":-2.6178460121154785,"165":0.03462855890393257,"166":-0.8187664747238159,"167":1.3287450075149536,"168":-1.3472678661346436,"169":-0.05268166959285736,"170":-0.705272912979126,"171":0.3824393153190613,"172":-0.3686894476413727,"173":0.5154125690460205,"174":-0.9778656363487244,"175":0.1933947205543518,"176":0.5234243273735046,"177":0.5884986519813538,"178":0.5510542392730713,"179":-0.6196684837341309,"180":0.4458141028881073,"181":-1.1613470315933228,"182":0.9904747009277344,"183":-0.8172287344932556,"184":-1.820724606513977,"185":1.8472747802734375,"186":-0.6695647835731506,"187":-0.31535568833351135,"188":0.46703556180000305,"189":0.7303938865661621,"190":0.9594288468360901,"191":-1.8285101652145386,"192":0.6011556386947632,"193":-0.6159229278564453,"194":-1.09172785282135,"195":-0.486864298582077,"196":0.610731840133667,"197":0.8367043733596802,"198":0.5531984567642212,"199":0.12989212572574615,"200":0.05649827793240547,"201":-0.8506035804748535,"202":-1.6850886344909668,"203":-1.3431118726730347,"204":0.12750379741191864,"205":-0.9529170393943787,"206":-1.298343539237976,"207":0.24716438353061676,"208":1.4092456102371216,"209":-1.6204246282577515,"210":1.2204593420028687,"211":-0.014701812528073788,"212":0.12009981274604797,"213":0.015817822888493538,"214":0.6544091105461121,"215":0.5905424356460571,"216":-1.0875756740570068,"217":-0.2926739454269409,"218":-0.0898020789027214,"219":2.18833589553833,"220":-2.184102773666382,"221":0.6343847513198853,"222":-1.8236591815948486,"223":1.8219605684280396,"224":-0.3089148700237274,"225":-0.9860358834266663,"226":-0.9881587028503418,"227":1.100334882736206,"228":0.13745006918907166,"229":-0.07794477790594101,"230":0.3218969702720642,"231":-0.8587477803230286,"232":0.43101978302001953,"233":-0.7219342589378357,"234":-1.2608916759490967,"235":-0.7638847231864929,"236":1.5393953323364258,"237":0.1946934461593628,"238":0.7368708848953247,"239":-0.3483341634273529,"240":0.04983440786600113,"241":1.0932307243347168,"242":-0.27967819571495056,"243":0.7611651420593262,"244":-0.2043057531118393,"245":-1.7433639764785767,"246":0.7415289878845215,"247":-0.8683514595031738,"248":0.6498432159423828,"249":0.17290815711021423,"250":-0.44967058300971985,"251":0.3829692304134369,"252":-0.35390299558639526,"253":0.5932990312576294,"254":-0.46703919768333435,"255":0.15041689574718475,"256":0.057801250368356705,"257":0.19747833907604218,"258":0.9808557629585266,"259":0.7046983242034912,"260":-0.535678505897522,"261":-0.7051565051078796,"262":-1.8719758987426758,"263":1.5223109722137451,"264":-1.0995436906814575,"265":0.29728877544403076,"266":-0.7323389053344727,"267":-0.5090233683586121,"268":-1.4545676708221436,"269":0.4378630816936493,"270":0.6556107997894287,"271":1.3951754570007324,"272":-0.1446690708398819,"273":-0.6372436881065369,"274":-0.47202959656715393,"275":-0.26146095991134644,"276":0.535625696182251,"277":0.45701074600219727,"278":-0.6068562865257263,"279":-0.2084103673696518,"280":-0.04157126322388649,"281":-0.1900152713060379,"282":0.3401966691017151,"283":0.3061649203300476,"284":0.2769722640514374,"285":-0.8843685388565063,"286":1.184791922569275,"287":0.9384089112281799,"288":-0.38098666071891785,"289":-0.19020646810531616,"290":-0.4460192024707794,"291":-0.10061568766832352,"292":0.22565676271915436,"293":-0.023001955822110176,"294":0.23965571820735931,"295":0.6287656426429749,"296":-0.25449714064598083,"297":0.04381215572357178,"298":-0.20211279392242432,"299":1.0024023056030273,"300":0.6586472988128662,"301":0.1730327010154724,"302":0.09532898664474487,"303":-0.5047606229782104,"304":-0.32523003220558167,"305":0.5823366045951843,"306":-0.0514400489628315,"307":1.3734729290008545,"308":-0.45303475856781006,"309":-0.5382338166236877,"310":-0.4725244343280792,"311":0.31630125641822815,"312":-0.388435423374176,"313":-0.4908304214477539,"314":-0.2284279614686966,"315":0.7337519526481628,"316":-0.17068424820899963,"317":0.1770503669977188,"318":1.3273248672485352,"319":-0.7233193516731262,"320":-0.9749965667724609,"321":0.6310216784477234,"322":0.7246429324150085,"323":-0.8609286546707153,"324":-0.3487175405025482,"325":0.6670229434967041,"326":-0.6430205702781677,"327":-0.9300516843795776,"328":1.123615026473999,"329":0.07768317312002182,